;pos_time;latitude;longitude;altitude;alt_time;pitch;roll;yaw
0;1665761660.566626;46.975534499999995;7.180356;-0.015000000596046448;1665761660.7149765;-1.163379192352295;-1.1046804189682007;92.49276733398438
1;1665761660.7686598;46.975534499999995;7.180356;-0.01600000075995922;1665761660.9111516;-1.2300091981887817;-1.200616478919983;92.5337142944336
2;1665761660.9755695;46.975534499999995;7.180356;-0.01600000075995922;1665761661.1219702;-1.3964595794677734;-1.1125271320343018;92.36962127685547
3;1665761661.1893146;46.975534499999995;7.180356;-0.01900000125169754;1665761661.3269284;-1.0279650688171387;-1.1156773567199707;92.48121643066406
4;1665761661.3874402;46.975534499999995;7.1803558999999995;-0.020000001415610313;1665761661.546529;-1.2679224014282227;-1.1840134859085083;92.47686004638672
5;1665761661.6128988;46.975534499999995;7.1803558999999995;-0.01900000125169754;1665761661.7593007;-1.517693281173706;-0.9864075183868408;92.363525390625
6;1665761661.8305457;46.975534499999995;7.1803558999999995;-0.01900000125169754;1665761661.9730406;-1.4401087760925293;-1.0792382955551147;92.311767578125
7;1665761662.0403852;46.975534499999995;7.1803558999999995;-0.020000001415610313;1665761662.1721442;-1.3861503601074219;-1.1776455640792847;92.34034729003906
8;1665761662.2287524;46.975534499999995;7.1803558999999995;-0.017000000923871994;1665761662.3790567;-1.3793331384658813;-1.096131682395935;92.33792114257812
9;1665761662.4405468;46.9755344;7.1803558999999995;-0.012000000104308128;1665761662.593779;-1.3958224058151245;-1.2729955911636353;92.47362518310547
10;1665761662.6689308;46.9755344;7.1803558999999995;-0.012000000104308128;1665761662.9100022;-1.5092048645019531;-1.0402525663375854;92.33198547363281
11;1665761662.9871073;46.9755344;7.1803558999999995;-0.013000000268220901;1665761663.1227689;-1.3101000785827637;-1.0143191814422607;92.27336120605469
12;1665761663.2047524;46.9755344;7.1803558;-0.014000000432133675;1665761663.3355377;-1.1361463069915771;-1.0353143215179443;92.4677963256836
13;1665761663.3970249;46.9755344;7.1803557;-0.01900000125169754;1665761663.6449285;-1.0570193529129028;-1.0039063692092896;92.33161926269531
14;1665761663.7044654;46.9755344;7.1803557;-0.024000000208616257;1665761663.8508646;-1.1951297521591187;-0.9787823557853699;92.1298828125
15;1665761663.9299197;46.9755344;7.1803557;-0.0020000000949949026;1665761664.0870557;-1.28200364112854;-0.9181772470474243;92.17127990722656
16;1665761664.1514716;46.9755344;7.1803557;-0.005000000353902578;1665761664.2929924;-1.0463885068893433;-0.9012749195098877;92.12960052490234
17;1665761664.3593664;46.9755344;7.1803557;-0.00800000037997961;1665761664.498928;-1.0036098957061768;-0.8157858848571777;92.14725494384766
18;1665761664.5692003;46.9755344;7.1803558;-0.009000000543892384;1665761664.707793;-1.2084938287734985;-1.0685663223266602;92.31299591064453
19;1665761664.7692797;46.9755343;7.1803558999999995;-0.009000000543892384;1665761664.918197;-1.3294028043746948;-0.7851941585540771;92.32111358642578
20;1665761664.980659;46.9755343;7.180356;-0.006000000052154064;1665761665.2217839;-1.2430824041366577;-0.6410777568817139;92.39117431640625
21;1665761665.273511;46.9755343;7.180356;0.0;1665761665.4130764;-1.2138837575912476;-0.8894035220146179;92.1333999633789
22;1665761665.471638;46.9755343;7.1803558999999995;-0.0020000000949949026;1665761665.6082785;-1.3111549615859985;-0.6799458861351013;92.12808990478516
23;1665761666.055284;46.9755343;7.1803558;-0.003000000026077032;1665761666.2046134;-1.2075756788253784;-0.8540765047073364;92.3548355102539
24;1665761666.265124;46.9755343;7.1803558;-0.007000000216066837;1665761666.413526;-1.377841830253601;-0.8500274419784546;92.28072357177734
25;1665761666.4877024;46.9755343;7.1803558;-0.00800000037997961;1665761666.6428607;-1.2251369953155518;-0.6079819202423096;92.15390014648438
26;1665761666.7097423;46.9755343;7.1803558;-0.005000000353902578;1665761666.849307;-1.085463285446167;-0.9092285633087158;92.3319320678711
27;1665761666.9068909;46.9755343;7.1803558;0.0;1665761667.0737863;-0.9197237491607666;-0.7823337912559509;92.12435913085938
28;1665761667.1362548;46.9755343;7.1803558;0.007000000216066837;1665761667.2670383;-0.08617108315229416;-1.2696881294250488;92.8426284790039
29;1665761667.3294995;46.9755343;7.1803558;0.02800000086426735;1665761667.4861727;0.2800387442111969;-1.697490930557251;92.59233093261719
30;1665761667.555789;46.9755343;7.1803557;0.07700000703334808;1665761667.7100508;-0.4919506311416626;-1.565452218055725;91.9873275756836
31;1665761667.7666597;46.9755344;7.1803555999999995;0.14900000393390656;1665761667.9110606;-1.3499122858047485;-1.5881620645523071;92.50442504882812
32;1665761667.9764526;46.975534499999995;7.1803554;0.2460000067949295;1665761668.1424217;-1.448477029800415;-1.286487340927124;92.58772277832031
33;1665761668.1980553;46.975534499999995;7.1803552999999996;0.36900001764297485;1665761668.3293478;-1.25115168094635;-1.0904734134674072;92.9716796875
34;1665761668.3927875;46.975534599999996;7.1803552999999996;0.5100000500679016;1665761668.5596843;-1.3077970743179321;-0.47661077976226807;94.02262115478516
35;1665761668.6201947;46.9755347;7.1803552999999996;0.6730000376701355;1665761668.7783082;-1.7262574434280396;-0.44694802165031433;94.41204833984375
36;1665761668.8358912;46.9755348;7.1803552999999996;0.859000027179718;1665761668.994005;-1.263897180557251;-0.5362614393234253;93.92675018310547
37;1665761669.0525658;46.9755349;7.1803554;1.068000078201294;1665761669.1931083;-0.9311619997024536;-0.47969385981559753;92.83817291259766
38;1665761669.2477646;46.9755349;7.1803554;1.3000000715255737;1665761669.406852;-1.0374243259429932;-0.44548529386520386;92.55731201171875
39;1665761669.4634602;46.975535;7.1803555;1.558000087738037;1665761669.6147387;-0.8532567024230957;-0.2818562686443329;93.96073150634766
40;1665761669.6762269;46.975535;7.1803555999999995;1.8330000638961792;1665761669.831411;-0.5852619409561157;-0.7367400527000427;94.5983657836914
41;1665761669.9055893;46.975535;7.1803555999999995;2.129000186920166;1665761670.0480819;-0.9815670847892761;-0.7427758574485779;95.28298950195312
42;1665761670.1085947;46.9755349;7.1803555999999995;2.439000129699707;1665761670.2569463;-1.3559719324111938;-0.6902561783790588;94.35200500488281
43;1665761670.3223395;46.9755349;7.1803555999999995;2.754000186920166;1665761670.4872825;-1.3519456386566162;-0.46968838572502136;94.19580841064453
44;1665761670.550723;46.9755349;7.1803555999999995;3.073000192642212;1665761670.6863883;-1.1643677949905396;-0.5939838290214539;94.91340637207031
45;1665761670.74202;46.9755348;7.1803557;3.392000198364258;1665761670.8846924;-0.9996905326843262;-0.7417252063751221;95.63712310791016
46;1665761670.9491074;46.9755348;7.1803557;3.7090001106262207;1665761671.0925806;-0.8723811507225037;-0.9116472601890564;95.26927185058594
47;1665761671.176517;46.9755347;7.1803558;4.027000427246094;1665761671.3151095;-0.7456466555595398;-0.9607152342796326;94.54077911376953
48;1665761671.3785462;46.9755347;7.1803558;4.3420000076293945;1665761671.5288532;-0.7670941352844238;-0.8627722263336182;93.7186508178711
49;1665761671.5893617;46.975534599999996;7.1803558999999995;4.659000396728516;1665761671.7289314;-0.8629080057144165;-0.578720211982727;93.76123046875
50;1665761671.8177462;46.975534599999996;7.1803558999999995;4.978000164031982;1665761671.9768364;-0.8786219358444214;-0.7951815128326416;94.25498962402344
51;1665761672.0500357;46.975534499999995;7.1803558999999995;5.300000190734863;1665761672.1876516;-0.7815030813217163;-1.1162834167480469;95.46769714355469
52;1665761672.264754;46.975534499999995;7.1803558999999995;5.621000289916992;1665761672.4082265;-0.8523994088172913;-1.1534967422485352;94.99213409423828
53;1665761672.467764;46.9755344;7.1803558999999995;5.939000129699707;1665761672.6141622;-0.9971686005592346;-1.4120129346847534;94.2596206665039
54;1665761672.674677;46.9755344;7.1803558999999995;6.261000156402588;1665761672.8259556;-0.9035769104957581;-1.2551885843276978;93.7710189819336
55;1665761672.9079387;46.9755343;7.1803558999999995;6.581000328063965;1665761673.0533643;-0.7632358074188232;-1.0473341941833496;93.47415924072266
56;1665761673.6262743;46.9755343;7.1803558999999995;6.902000427246094;1665761673.7629182;-0.866573691368103;-1.0224281549453735;94.06116485595703
57;1665761673.8322117;46.9755342;7.1803558;7.2220001220703125;1665761673.9961786;-1.1794449090957642;-0.7277998924255371;95.15911102294922
58;1665761674.0498579;46.9755342;7.1803558;7.5400004386901855;1665761674.1816168;-1.223879337310791;-0.7102866768836975;95.53995513916016
59;1665761674.2411535;46.9755342;7.1803558;7.854000568389893;1665761674.3875558;-0.9090283513069153;-0.6459380388259888;95.30995178222656
60;1665761674.4763691;46.9755342;7.1803558;8.166000366210938;1665761674.6286285;-0.6267410516738892;-0.6540963649749756;94.87877655029297
61;1665761674.6910927;46.9755342;7.1803558;8.482000350952148;1665761674.84042;-1.0787546634674072;-1.113987922668457;93.85777282714844
62;1665761674.8989792;46.9755341;7.1803557;8.795000076293945;1665761675.0580676;-1.6344265937805176;-1.3786022663116455;93.69686126708984
63;1665761675.1215076;46.9755341;7.1803557;9.110000610351562;1665761675.277666;-1.1566624641418457;-1.8109986782073975;93.14863586425781
64;1665761675.3391566;46.975533999999996;7.1803558;9.421000480651855;1665761675.4914098;-0.6041387915611267;-2.143205165863037;93.67555236816406
65;1665761675.5528984;46.975533999999996;7.180356;9.738000869750977;1665761675.7227216;-0.15167219936847687;-2.5622615814208984;94.87572479248047
66;1665761675.7861617;46.9755341;7.180356;10.047000885009766;1665761675.9296353;-0.0016346563352271914;-2.0314557552337646;95.06428527832031
67;1665761675.9842908;46.9755341;7.1803561;10.367000579833984;1665761676.1502116;0.22300782799720764;-2.5922913551330566;95.16130065917969
68;1665761676.2097461;46.9755342;7.180356199999999;10.793000221252441;1665761676.3834755;-0.0625024288892746;-1.6685932874679565;95.24745178222656
69;1665761676.4459395;46.9755342;7.180356199999999;11.302000999450684;1665761676.595267;-0.16313810646533966;0.20902791619300842;95.2697525024414
70;1665761676.6635869;46.9755343;7.1803561;11.836000442504883;1665761676.8070598;0.5476080179214478;1.2591947317123413;94.66207122802734
71;1665761676.869523;46.9755344;7.180356;12.38800048828125;1665761677.0452032;0.5950604677200317;0.5353606939315796;94.53282165527344
72;1665761677.1105938;46.975534499999995;7.1803558;12.949000358581543;1665761677.7469478;0.3098174035549164;-0.3813059329986572;94.73371124267578
73;1665761677.8094108;46.975534499999995;7.1803555999999995;13.527000427246094;1665761677.9411693;0.18988770246505737;-0.7665466666221619;95.56519317626953
74;1665761678.0143712;46.975534499999995;7.1803552999999996;14.123001098632812;1665761678.1549127;-1.5635117292404175;-1.0204565525054932;95.32588195800781
75;1665761678.2398255;46.975534499999995;7.180354899999999;14.72900104522705;1665761678.3667076;-3.7129547595977783;-0.7919580340385437;94.31251525878906
76;1665761678.424289;46.975534499999995;7.1803547;15.343000411987305;1665761678.5658114;-3.7316441535949707;-0.7534091472625732;93.77766418457031
77;1665761678.6292508;46.975534499999995;7.1803548;15.960000991821289;1665761678.8078575;-1.9234611988067627;-0.9294342398643494;94.32124328613281
78;1665761678.8586113;46.975534499999995;7.180355;16.57400131225586;1665761679.0030582;-0.8841240406036377;-0.8652898669242859;95.271240234375
79;1665761679.0577142;46.9755344;7.1803552999999996;17.189001083374023;1665761679.194356;-0.8034563660621643;-0.9442314505577087;95.646484375
80;1665761679.2587683;46.9755344;7.1803555999999995;17.80500030517578;1665761679.4012651;-0.7468287348747253;-0.9522947072982788;94.95823669433594
81;1665761679.4754443;46.9755344;7.1803558;18.421001434326172;1665761679.6189146;-0.5897720456123352;-0.983395516872406;94.22545623779297
82;1665761679.6862574;46.9755344;7.180356;19.0310001373291;1665761679.8241627;-0.7614594101905823;-0.7965903282165527;93.75076293945312
83;1665761679.9090738;46.9755344;7.1803561;19.643001556396484;1665761680.1647875;-0.8558319807052612;-0.8175814747810364;94.33097839355469
84;1665761680.236033;46.9755344;7.180356199999999;20.257001876831055;1665761680.3677926;-0.8414862751960754;-0.9256744384765625;95.50270080566406
85;1665761680.4429452;46.9755344;7.180356199999999;20.876001358032227;1665761680.5961788;-0.9103659987449646;-0.9306588172912598;95.38514709472656
86;1665761680.6596174;46.9755344;7.180356199999999;21.492000579833984;1665761680.803089;-1.0139178037643433;-0.7701380252838135;94.56678771972656
87;1665761680.8645794;46.9755344;7.1803563;22.11100196838379;1665761681.0012186;-1.0463932752609253;-0.8741708397865295;93.73027801513672
88;1665761681.062707;46.9755344;7.1803563;22.725000381469727;1665761681.2120361;-0.946012020111084;-0.8666062951087952;94.0333480834961
89;1665761681.2705932;46.9755344;7.1803563;23.339000701904297;1665761681.4257782;-0.9461605548858643;-0.8065112829208374;94.7863540649414
90;1665761681.4911711;46.9755344;7.180356199999999;23.950000762939453;1665761681.6326907;-1.082584023475647;-1.0948071479797363;95.5058364868164
91;1665761681.697106;46.9755344;7.1803563;24.562000274658203;1665761681.9567237;-0.9062145352363586;-0.9195504784584045;95.19013977050781
92;1665761682.0221155;46.9755344;7.1803563;25.172000885009766;1665761682.1685157;-0.8093333840370178;-0.7891928553581238;93.95675659179688
93;1665761682.2270753;46.9755344;7.1803563;25.783000946044922;1665761682.390068;-0.9762790203094482;-0.799286425113678;93.7715835571289
94;1665761682.4505796;46.9755344;7.1803564;26.397001266479492;1665761682.5999053;-1.141156554222107;-0.8938531279563904;94.74839782714844
95;1665761682.6682258;46.9755344;7.1803564;27.012001037597656;1665761682.8263392;-1.0191636085510254;-0.8381345272064209;95.32386016845703
96;1665761682.890753;46.9755344;7.1803564;27.617000579833984;1665761683.039106;-0.9306419491767883;-0.8960153460502625;94.96517181396484
97;1665761683.1005943;46.9755344;7.1803564;28.222002029418945;1665761683.2401636;-1.0651278495788574;-0.8220697045326233;93.79312896728516
98;1665761683.3036003;46.9755344;7.1803564;28.82600212097168;1665761683.4744005;-0.83208829164505;-0.7753511667251587;93.6545639038086
99;1665761683.5271075;46.9755344;7.1803564;29.426000595092773;1665761683.6803403;-0.8608310222625732;-0.8033552765846252;93.94477081298828
100;1665761683.7554927;46.9755343;7.1803564;30.025001525878906;1665761683.9204347;-0.7599188089370728;-0.96071857213974;94.7912826538086
101;1665761683.990705;46.9755343;7.1803564;30.6200008392334;1665761684.1380816;-0.921862781047821;-0.9910476803779602;95.26332092285156
102;1665761684.304001;46.9755343;7.1803564;31.207000732421875;1665761684.9462085;-1.0035667419433594;-0.9633741974830627;95.1906967163086
103;1665761685.0125782;46.9755343;7.1803563;31.795001983642578;1665761685.1492178;-0.8934324383735657;-0.8773196339607239;93.77281951904297
104;1665761685.2155848;46.9755343;7.1803563;32.38199996948242;1665761685.371745;-0.8917103409767151;-0.8729563355445862;93.62747192382812
105;1665761685.4322584;46.9755343;7.1803563;32.967002868652344;1665761685.578658;-1.2574121952056885;-1.0058283805847168;94.32600402832031
106;1665761685.6391687;46.9755343;7.180356199999999;33.557003021240234;1665761685.7845924;-1.071852207183838;-0.9021315574645996;95.2911376953125
107;1665761685.84413;46.9755344;7.180356199999999;34.145999908447266;1665761685.9983375;-1.012431025505066;-1.0271178483963013;95.14064025878906
108;1665761686.0617766;46.9755344;7.180356199999999;34.73400115966797;1665761686.215008;-0.7826328873634338;-0.7432520985603333;94.27458190917969
109;1665761686.2755218;46.9755344;7.180356199999999;35.31500244140625;1665761686.436565;-0.9058391451835632;-0.8195451498031616;94.06033325195312
110;1665761686.5087864;46.9755344;7.180356199999999;35.9010009765625;1665761686.6512814;-1.0272082090377808;-0.8562214970588684;94.28606414794922
111;1665761686.7156963;46.9755344;7.1803561;36.49100112915039;1665761686.8718586;-1.126933217048645;-0.6800104975700378;94.82740783691406
112;1665761686.9343226;46.975534499999995;7.1803561;37.08000183105469;1665761687.5677893;-0.9720074534416199;-1.0081437826156616;95.26158142089844
113;1665761687.6283026;46.975534499999995;7.1803561;37.67100143432617;1665761687.7825098;-1.0349934101104736;-0.7672730684280396;94.54631042480469
114;1665761687.8586373;46.975534499999995;7.1803561;38.26100158691406;1665761687.9991817;-0.9474800825119019;-0.6664437651634216;93.88307189941406
115;1665761688.063598;46.975534499999995;7.1803561;38.84600067138672;1665761688.209021;-1.0450379848480225;-0.7529863119125366;93.728515625
116;1665761688.2685566;46.975534499999995;7.1803561;39.435001373291016;1665761688.4061725;-1.0767899751663208;-0.7199809551239014;94.87084197998047
117;1665761688.4696145;46.975534499999995;7.1803561;40.02400207519531;1665761689.1167026;-0.9137418270111084;-0.863584578037262;95.42159271240234
118;1665761689.1850212;46.975534499999995;7.180356;40.611000061035156;1665761689.341185;-0.8783321976661682;-0.768506646156311;95.40803527832031
119;1665761689.404623;46.975534499999995;7.180356;41.20100021362305;1665761689.5412638;-0.9590550661087036;-0.8401790857315063;94.27916717529297
120;1665761689.606654;46.975534499999995;7.180356;41.7920036315918;1665761689.7540302;-1.060684323310852;-0.7203601002693176;93.39518737792969
121;1665761689.8135657;46.975534599999996;7.1803558999999995;42.37900161743164;1665761689.955086;-1.1744552850723267;-0.7385019063949585;93.8285903930664
122;1665761690.0263333;46.975534599999996;7.1803558;42.96500015258789;1665761690.1746838;-1.133887529373169;-0.7526817321777344;94.97339630126953
123;1665761690.2498376;46.975534599999996;7.1803558;43.55500030517578;1665761690.3825738;-1.121529459953308;-0.631487250328064;95.23248291015625
124;1665761690.4469876;46.975534599999996;7.1803557;44.14400100708008;1665761690.602369;-1.1020071506500244;-0.6799308061599731;94.63412475585938
125;1665761690.669716;46.9755347;7.1803557;44.73600387573242;1665761690.825874;-1.123471736907959;-0.44837597012519836;93.72017669677734
126;1665761690.8951712;46.9755347;7.1803557;45.32600402832031;1665761691.0386417;-1.1862140893936157;-0.3046535551548004;93.75333404541016
127;1665761691.1137931;46.9755347;7.1803557;45.9170036315918;1665761691.2436004;-1.1595956087112427;-0.5909558534622192;94.6442642211914
128;1665761691.3031414;46.9755347;7.1803557;46.50400161743164;1665761691.9406734;-1.0979351997375488;-0.7160175442695618;95.21639251708984
129;1665761692.0021627;46.975534599999996;7.1803555999999995;47.09300231933594;1665761692.1544166;-1.010533094406128;-0.7045473456382751;94.87972259521484
130;1665761692.2110262;46.975534599999996;7.1803555999999995;47.68000411987305;1665761692.345715;-1.140374779701233;-0.9199829697608948;93.97135925292969
131;1665761692.405257;46.975534499999995;7.1803555999999995;48.2660026550293;1665761692.5643387;-1.1423720121383667;-0.7952890396118164;93.49828338623047
132;1665761692.63168;46.975534499999995;7.1803555999999995;48.85400390625;1665761692.766371;-1.0856502056121826;-0.7629954218864441;93.98290252685547
133;1665761692.826886;46.9755344;7.1803555999999995;49.44300079345703;1665761692.9791355;-1.195374608039856;-0.9673243165016174;95.10733032226562
134;1665761693.0425758;46.9755344;7.1803555999999995;50.03200149536133;1665761693.1782465;-1.138127088546753;-0.8996192216873169;95.16515350341797
135;1665761693.2407055;46.9755344;7.1803555999999995;50.62600326538086;1665761693.385152;-1.297082781791687;-0.9226190447807312;94.73982238769531
136;1665761693.4495711;46.9755344;7.1803555999999995;51.22500228881836;1665761693.5930421;-1.340937614440918;-0.6664181351661682;93.57803344726562
137;1665761693.681855;46.9755344;7.1803555999999995;51.8280029296875;1665761693.911215;-1.2870548963546753;-0.739559531211853;93.83152770996094
138;1665761693.9756346;46.9755344;7.1803557;52.42900085449219;1665761694.1152005;-1.026705026626587;-0.7667403221130371;95.18376159667969
139;1665761694.1805925;46.9755344;7.1803557;53.02800369262695;1665761694.3308964;-0.8822556734085083;-0.7144932150840759;95.88225555419922
140;1665761694.3933625;46.9755344;7.1803558;53.621002197265625;1665761694.541713;-0.9339257478713989;-0.8941868543624878;95.00531768798828
141;1665761695.0618505;46.9755344;7.1803558;54.21900177001953;1665761695.2043467;-1.094422698020935;-0.8040940165519714;93.97904968261719
142;1665761695.273643;46.9755344;7.1803558;54.816001892089844;1665761695.4112587;-1.2231569290161133;-0.8138014674186707;93.90472412109375
143;1665761695.4747329;46.9755344;7.1803558;55.41400146484375;1665761695.6171956;-1.5211917161941528;-0.7516559958457947;94.92283630371094
144;1665761695.680636;46.9755344;7.1803558;55.987003326416016;1665761695.854363;-1.6562365293502808;-0.8978292942047119;94.93472290039062
145;1665761695.9168267;46.975534499999995;7.1803558;56.49500274658203;1665761696.0563967;-1.3684087991714478;-0.9423601031303406;95.12808227539062
146;1665761696.1120267;46.975534499999995;7.1803558999999995;56.9170036315918;1665761696.2545295;-1.10990309715271;-0.8316338658332825;95.25115966796875
147;1665761696.3277225;46.975534499999995;7.180356;57.27700424194336;1665761696.468277;-0.9014430046081543;-0.9725003242492676;95.69284057617188
148;1665761696.5317068;46.975534499999995;7.180356;57.583003997802734;1665761696.6776013;-0.8004021048545837;-0.8258792161941528;94.88816833496094
149;1665761696.742996;46.975534599999996;7.1803561;57.83400344848633;1665761696.8786578;-0.8495920300483704;-0.5077958106994629;94.21864318847656
150;1665761696.9518604;46.975534599999996;7.1803561;58.03900146484375;1665761697.0855732;-0.8046228289604187;-0.3430238664150238;93.69339752197266
151;1665761697.1431572;46.9755347;7.1803561;58.2130012512207;1665761697.2827218;1.121025562286377;-3.7081141471862793;92.79752349853516
152;1665761697.3510432;46.9755348;7.180356;58.355003356933594;1665761697.4886575;14.165765762329102;-22.028200149536133;86.78669738769531
153;1665761697.553074;46.9755354;7.1803554;58.50100326538086;1665761697.7004514;29.04428482055664;-36.50615692138672;79.48751831054688
154;1665761697.7716997;46.9755374;7.1803529;58.634002685546875;1665761697.9132197;29.807756423950195;-50.80049133300781;68.75540924072266
155;1665761697.9747083;46.9755416;7.1803471;58.73500442504883;1665761698.597394;14.741680145263672;-58.4937629699707;54.02353286743164
156;1665761698.60813;46.9755483;7.180337199999999;58.801002502441406;1665761698.7428184;-7.585595607757568;-56.36844253540039;37.252525329589844
157;1665761698.7760031;46.9755572;7.1803235;58.836002349853516;1665761698.883365;-23.998254776000977;-47.713035583496094;19.126237869262695
158;1665761698.9194758;46.9755675;7.1803067;58.86600112915039;1665761699.0326898;-35.06745910644531;-36.10200119018555;1.119742751121521
159;1665761699.5987694;46.9755786;7.1802874;58.900001525878906;1665761699.7285774;-39.91970443725586;-23.312849044799805;-13.506000518798828
160;1665761699.819346;46.9755902;7.1802667;58.923004150390625;1665761699.952082;-43.2562141418457;-13.565427780151367;-16.146230697631836
161;1665761700.0077147;46.9756025;7.1802452;58.94000244140625;1665761700.1556075;-48.02420425415039;-17.931175231933594;0.6626175045967102
162;1665761700.2307875;46.975615999999995;7.1802239;58.94600296020508;1665761700.383013;-49.058021545410156;-35.361759185791016;23.93227195739746
163;1665761700.4386442;46.975631;7.1802031;58.919002532958984;1665761700.5889485;-33.07222366333008;-49.85597610473633;54.85594940185547
164;1665761700.6504397;46.975648;7.1801834;58.84700393676758;1665761700.7978134;-20.238248825073242;-42.328033447265625;75.99727630615234
165;1665761700.895412;46.975666399999994;7.1801654;58.74500274658203;1665761701.034982;-14.083057403564453;-31.25051498413086;73.70975494384766
166;1665761701.0925663;46.975685399999996;7.180149999999999;58.66800308227539;1665761701.2526307;1.5553396940231323;-39.980228424072266;68.5240707397461
167;1665761701.31314;46.9757046;7.180136;58.65300369262695;1665761701.4439247;13.379279136657715;-50.59966278076172;52.825103759765625
168;1665761701.5054123;46.9757238;7.1801216;58.665000915527344;1665761701.6684048;5.376591682434082;-54.00587463378906;23.581445693969727
169;1665761701.7337978;46.975742399999994;7.1801052;58.63600158691406;1665761701.8762944;-3.540463924407959;-43.69915008544922;-0.7539035677909851
170;1665761701.9582775;46.9757593;7.1800862;58.58900451660156;1665761702.1037035;-9.87056827545166;-35.606510162353516;-11.750022888183594
171;1665761702.1671414;46.975774099999995;7.1800659;58.573001861572266;1665761702.2998774;-21.506664276123047;-30.38865089416504;-20.278095245361328
172;1665761702.3721006;46.9757871;7.1800447;58.60400390625;1665761702.534116;-35.78031921386719;-21.826313018798828;-27.676054000854492
173;1665761702.5936525;46.9757989;7.1800223999999995;58.68300247192383;1665761702.7410288;-48.09197998046875;-7.617839336395264;-33.712520599365234
174;1665761702.8327732;46.9758107;7.1799994;58.7760009765625;1665761702.9733162;-56.879051208496094;4.044356346130371;-38.13413619995117
175;1665761703.0387094;46.975823399999996;7.179976;58.84400177001953;1665761703.1798759;-61.334957122802734;9.095176696777344;-35.55875778198242
176;1665761703.2511241;46.975837899999995;7.1799526;58.8640022277832;1665761703.3955686;-57.796939849853516;2.3388917446136475;-18.76078224182129
177;1665761703.4716992;46.9758542;7.179929899999999;58.8180046081543;1665761703.6259074;-48.128665924072266;-3.2632641792297363;-6.573136806488037
178;1665761703.6854405;46.9758719;7.1799086999999995;58.74100112915039;1665761703.8357465;-42.257408142089844;-8.439667701721191;2.4275529384613037
179;1665761703.8962572;46.9758904;7.179889299999999;58.678001403808594;1665761704.0621793;-37.420745849609375;-18.384798049926758;11.20448112487793
180;1665761704.128545;46.9759094;7.1798714;58.64500427246094;1665761704.2651844;-16.415563583374023;-6.415744781494141;18.35021209716797
181;1665761704.3247206;46.9759282;7.179855;58.65800094604492;1665761704.4789288;2.8159124851226807;-6.3188934326171875;12.361187934875488
182;1665761704.541394;46.9759454;7.1798402999999995;58.71000289916992;1665761704.684875;16.139984130859375;-16.200578689575195;0.4605199694633484
183;1665761704.7492805;46.97596;7.179826599999999;58.76400375366211;1665761704.9083736;16.483638763427734;-36.13803482055664;-5.907696723937988
184;1665761704.964002;46.975972;7.179812699999999;58.77300262451172;1665761705.1123538;0.033033356070518494;-39.9686164855957;-16.667198181152344
185;1665761705.171889;46.975981499999996;7.1797974;58.71900177001953;1665761705.3124347;-16.69774627685547;-18.5294189453125;-36.38884735107422
186;1665761705.3875844;46.9759892;7.1797811;58.65500259399414;1665761705.534962;-25.451393127441406;-5.705117225646973;-45.87844467163086
187;1665761705.5915685;46.9759958;7.1797644;58.63200378417969;1665761705.736993;-32.14585494995117;3.2920470237731934;-49.367591857910156
188;1665761705.7984827;46.9760023;7.1797474;58.65200424194336;1665761705.9321947;-39.16514205932617;10.715702056884766;-45.22515869140625
189;1665761705.9936807;46.9760097;7.179730299999999;58.71900177001953;1665761706.1400821;-45.73973846435547;7.2468719482421875;-33.132606506347656
190;1665761706.2005956;46.976018499999995;7.1797134;58.7920036315918;1665761706.3548007;-50.530738830566406;-3.785600185394287;-19.407724380493164
191;1665761706.4153125;46.9760291;7.1796966;58.86600112915039;1665761706.5539055;-53.92851257324219;-10.92225456237793;-8.96049690246582
192;1665761706.619297;46.976041599999995;7.1796798;58.92200469970703;1665761706.7598403;-56.065059661865234;-16.62241554260254;-1.1198163032531738
193;1665761706.8223052;46.9760561;7.1796631;58.952003479003906;1665761706.964801;-55.091087341308594;-23.083066940307617;8.603275299072266
194;1665761707.0360487;46.976072599999995;7.1796466;58.96200180053711;1665761707.1814728;-51.618587493896484;-27.066261291503906;18.600061416625977
195;1665761707.2380805;46.976091;7.1796307;58.95000457763672;1665761707.8754082;-46.17844009399414;-30.45897102355957;31.99453353881836
196;1665761707.938848;46.9761108;7.179615699999999;58.91800308227539;1665761708.0813484;-38.888023376464844;-35.291358947753906;45.84731674194336
197;1665761708.1438107;46.9761318;7.1796022;58.87000274658203;1665761708.2892332;-16.576446533203125;-29.58669090270996;49.064781188964844
198;1665761708.3487706;46.9761533;7.1795898;58.840003967285156;1665761708.5020006;13.200963973999023;-5.595027446746826;38.904293060302734
199;1665761708.5615356;46.9761734;7.179577999999999;58.86900329589844;1665761709.0680804;36.77668380737305;2.96805739402771;16.53786849975586
200;1665761709.1373792;46.9761903;7.1795667;58.846004486083984;1665761709.270112;31.48785400390625;-6.89708137512207;5.064770221710205
201;1665761709.3296502;46.9762038;7.1795566;58.69000244140625;1665761709.4760516;25.911882400512695;-10.366392135620117;-1.8256398439407349
202;1665761709.5375373;46.9762138;7.179547299999999;58.47600173950195;1665761709.6761289;23.26922035217285;-14.904682159423828;-10.82764720916748
203;1665761709.744483;46.9762212;7.1795385;58.24900436401367;1665761709.8996353;20.697866439819336;-16.38691520690918;-21.636974334716797
204;1665761709.9620955;46.9762263;7.179530199999999;58.0410041809082;1665761710.1104505;18.840896606445312;-15.712279319763184;-31.87851333618164
205;1665761710.1719384;46.9762292;7.1795222999999995;57.85900115966797;1665761710.3124804;16.457035064697266;-14.947920799255371;-41.336734771728516
206;1665761710.3993487;46.9762304;7.179514999999999;57.72300338745117;1665761710.538914;12.979621887207031;-15.123724937438965;-50.47093200683594
207;1665761710.5994236;46.9762299;7.1795084;57.63900375366211;1665761710.7546086;8.835894584655762;-17.251842498779297;-59.81948471069336
208;1665761710.8160968;46.976228;7.1795025;57.61000442504883;1665761710.9507854;4.2971510887146;-16.655447006225586;-62.952266693115234
209;1665761711.030815;46.976225;7.1794971;57.62300109863281;1665761711.1615992;-0.37041929364204407;8.730591773986816;-52.529056549072266
210;1665761711.228944;46.976221599999995;7.1794921;57.67100143432617;1665761711.3724144;-10.574953079223633;17.86558723449707;-43.87763595581055
211;1665761711.436832;46.976219099999994;7.1794877999999995;57.74700164794922;1665761711.5783534;-17.268579483032227;9.785529136657715;-40.39964294433594
212;1665761711.6661918;46.976217899999995;7.1794838;57.833003997802734;1665761711.7930727;-23.18096923828125;6.589846611022949;-39.31399154663086
213;1665761711.850659;46.9762181;7.1794796;57.936004638671875;1665761712.0058427;-27.395416259765625;10.56806468963623;-27.934900283813477
214;1665761712.0751374;46.9762199;7.179475099999999;58.052001953125;1665761712.2127547;-33.31398010253906;8.453132629394531;-16.039113998413086
215;1665761712.2859514;46.976223499999996;7.1794709999999995;58.17000198364258;1665761712.4235694;-38.697410583496094;1.5805323123931885;-4.946256637573242
216;1665761712.4909165;46.9762288;7.1794671;58.285003662109375;1665761712.6334085;-42.158164978027344;-3.2896761894226074;5.523688793182373
217;1665761712.6948955;46.9762359;7.1794633999999995;58.38900375366211;1665761712.8549674;-40.939064025878906;-6.3171491622924805;11.326963424682617
218;1665761712.9174237;46.976244799999996;7.1794601;58.49700164794922;1665761713.065778;-42.27519226074219;-3.192769765853882;0.7650769352912903
219;1665761713.130193;46.9762555;7.1794571;58.63300323486328;1665761713.268784;-43.2735595703125;5.4967827796936035;-9.528682708740234
220;1665761713.3312469;46.976267799999995;7.1794544;58.77300262451172;1665761713.4756968;-43.645626068115234;10.2274169921875;-18.557645797729492
221;1665761713.5401118;46.9762813;7.1794519;58.875003814697266;1665761713.683585;-41.9373779296875;17.11606216430664;-28.622480392456055
222;1665761713.7450721;46.976295799999995;7.1794496;58.954002380371094;1665761714.0227602;-36.55790328979492;20.80333709716797;-36.32073974609375
223;1665761714.0588646;46.9763113;7.1794476;59.006004333496094;1665761714.1593897;-28.246551513671875;20.384817123413086;-47.76396179199219
224;1665761714.7093196;46.9763272;7.179445599999999;59.035003662109375;1665761714.8454218;-15.358236312866211;7.489062786102295;-60.95146560668945
225;1665761714.899101;46.9763428;7.1794433;59.035003662109375;1665761715.0347652;-4.3444647789001465;-17.222827911376953;-72.33272552490234
226;1665761715.0972283;46.9763568;7.1794407;59.005001068115234;1665761715.2319176;2.991655111312866;-38.86493682861328;-75.97623443603516
227;1665761715.302188;46.976368;7.179437999999999;58.8900032043457;1665761715.431996;-3.49237322807312;-23.312604904174805;-84.87509155273438
228;1665761715.4925082;46.976375999999995;7.1794354;58.68400192260742;1665761715.628176;-9.669965744018555;-23.980539321899414;-93.48360443115234
229;1665761715.6886907;46.9763819;7.1794325;58.445003509521484;1665761715.8272786;-15.054240226745605;-22.651887893676758;-102.25294494628906
230;1665761715.8965743;46.976385799999996;7.1794294999999995;58.20600128173828;1665761716.028334;-16.78925895690918;-16.650726318359375;-108.88849639892578
231;1665761716.0878685;46.9763881;7.1794262;57.96200180053711;1665761716.2303677;-12.239355087280273;-20.513574600219727;-117.01911163330078
232;1665761716.7925403;46.9763891;7.179423;57.70700454711914;1665761716.927228;-10.067301750183105;-18.1975040435791;-129.5729522705078
233;1665761716.9887173;46.976389;7.179420299999999;57.445003509521484;1665761717.121454;-10.108646392822266;-11.444690704345703;-134.9055938720703
234;1665761717.2824965;46.9763879;7.1794183;57.176002502441406;1665761717.4318218;-8.141152381896973;-8.202542304992676;-135.01666259765625
235;1665761717.4884312;46.976386;7.1794161;56.92100143432617;1665761717.6299477;-7.006613731384277;-9.125734329223633;-133.1169891357422
236;1665761717.6933882;46.9763835;7.1794138;56.68700408935547;1665761718.0810268;-7.051403999328613;-5.637215614318848;-132.1722869873047
237;1665761718.147395;46.9763807;7.179411399999999;56.465003967285156;1665761718.2908685;-7.80109167098999;3.6902379989624023;-132.09939575195312
238;1665761718.3533306;46.9763777;7.1794085999999995;56.263004302978516;1665761718.4860675;-6.9213972091674805;3.621875286102295;-131.61572265625
239;1665761719.01399;46.976374799999995;7.1794052;56.079002380371094;1665761719.0618153;-3.5518410205841064;3.8232266902923584;-130.7375030517578
240;1665761719.0803602;46.9763721;7.1794015;55.910003662109375;1665761719.6655579;-5.675278186798096;0.06256920844316483;-128.9695281982422
241;1665761719.71631;46.9763698;7.179398;55.76100158691406;1665761719.8148878;-5.993774890899658;1.169658899307251;-128.9716339111328
242;1665761719.865675;46.9763673;7.1793945;55.637001037597656;1665761719.9954472;-6.293050289154053;-0.04193692281842232;-129.06069946289062
243;1665761720.0530286;46.9763648;7.179390799999999;55.53400421142578;1665761720.1808856;-6.864293575286865;-1.8871521949768066;-128.88241577148438
244;1665761720.2374938;46.976361999999995;7.179386999999999;55.45000076293945;1665761720.3643732;-6.413686275482178;-1.5521808862686157;-129.37442016601562
245;1665761721.0170395;46.976359099999996;7.179383199999999;55.384002685546875;1665761721.13611;-7.652207374572754;1.4069322347640991;-129.68104553222656
246;1665761721.202478;46.9763561;7.179379099999999;55.33100128173828;1665761721.3381414;-7.257800579071045;1.6363929510116577;-131.8495330810547
247;1665761721.4035342;46.9763532;7.1793752;55.30500411987305;1665761721.552865;-6.2026495933532715;3.3632447719573975;-133.09390258789062
248;1665761721.6182547;46.9763504;7.1793708999999994;55.30000305175781;1665761721.7636795;-5.989231109619141;2.7210536003112793;-131.77288818359375
249;1665761721.8212647;46.9763476;7.1793662;55.316001892089844;1665761721.9588795;-6.605205059051514;1.1565511226654053;-129.17198181152344
250;1665761722.033054;46.9763448;7.1793613;55.355003356933594;1665761722.1814091;-8.380301475524902;1.5257571935653687;-127.57071685791016
251;1665761722.239966;46.9763422;7.179355999999999;55.410003662109375;1665761722.3883176;-6.197133541107178;13.364768981933594;-123.70471954345703
252;1665761722.4517617;46.97634;7.179350299999999;55.487003326416016;1665761722.5923042;0.4393058121204376;16.07217788696289;-112.06385040283203
253;1665761722.6606226;46.976338899999995;7.1793445;55.60200119018555;1665761722.8001926;1.512334942817688;15.912017822265625;-101.55597686767578
254;1665761722.8616796;46.9763391;7.1793396;55.75400161743164;1665761723.006128;-0.7315509915351868;16.593782424926758;-93.08578491210938
255;1665761723.0695665;46.976340199999996;7.179335099999999;55.93100357055664;1665761723.236464;-2.8170790672302246;17.11217498779297;-84.41027069091797
256;1665761723.3067362;46.9763421;7.1793314;56.13300323486328;1665761723.455087;-4.8267059326171875;14.507997512817383;-74.4441146850586
257;1665761723.5214548;46.9763447;7.1793283;56.35400390625;1665761723.6961584;-6.9541754722595215;11.77917194366455;-65.27940368652344
258;1665761723.765454;46.976347499999996;7.179325599999999;56.58700180053711;1665761723.9079514;-7.743694305419922;7.866225242614746;-55.96212387084961
259;1665761723.9782221;46.9763507;7.1793230999999995;56.83200454711914;1665761724.1431675;-13.85783576965332;7.54489278793335;-46.53277587890625
260;1665761724.2036777;46.976354199999996;7.1793207;57.092002868652344;1665761724.3510542;-26.9522705078125;4.363446235656738;-36.360172271728516
261;1665761724.4135194;46.976358399999995;7.1793178;57.35200119018555;1665761724.5413766;-34.50019073486328;-2.9318275451660156;-32.16327667236328
262;1665761724.602862;46.9763635;7.1793138;57.58000183105469;1665761724.749776;-36.744476318359375;-3.612443685531616;-33.73219299316406
263;1665761724.8356647;46.976369899999995;7.1793083;57.772003173828125;1665761724.966448;-35.533775329589844;-2.1536145210266113;-35.87543869018555
264;1665761725.026961;46.976377299999996;7.1793014;57.935001373291016;1665761725.1596963;-34.224117279052734;-1.2475733757019043;-38.40937423706055
265;1665761725.234852;46.9763855;7.1792932;58.08900451660156;1665761725.3636806;-37.16305160522461;-0.02440410479903221;-41.498924255371094
266;1665761725.421267;46.9763945;7.1792839;58.243003845214844;1665761725.5637662;-36.49327087402344;0.793034553527832;-42.96683883666992
267;1665761725.6262267;46.9764039;7.1792736999999995;58.36900329589844;1665761725.7657924;-39.89891815185547;2.3632700443267822;-42.66614532470703
268;1665761725.8311856;46.976414;7.1792628;58.46600341796875;1665761725.9824677;-39.25466537475586;-0.756340503692627;-42.20111846923828
269;1665761726.0527444;46.9764246;7.1792511999999995;58.53400421142578;1665761726.1825466;-38.01020050048828;-0.866387128829956;-45.19861602783203
270;1665761726.2567194;46.976435699999996;7.179238799999999;58.58700180053711;1665761726.4070241;-30.70757293701172;-2.0622546672821045;-46.430206298828125
271;1665761726.9539187;46.9764469;7.1792257;58.6150016784668;1665761727.007602;-22.63921356201172;-0.3677577078342438;-45.24530029296875
272;1665761727.0261433;46.9764577;7.1792126;58.631004333496094;1665761727.1003187;-17.070880889892578;-1.243693470954895;-45.281551361083984
273;1665761727.1452143;46.976467799999995;7.179199799999999;58.643001556396484;1665761727.3452973;-10.110462188720703;1.3849350214004517;-50.209747314453125
274;1665761727.387262;46.9764773;7.1791877;58.647003173828125;1665761727.507311;-0.4420798122882843;-0.5493754744529724;-49.94847106933594
275;1665761727.5600145;46.976486;7.179176699999999;58.6510009765625;1665761727.6913168;8.00101375579834;-2.6369071006774902;-49.7176513671875
276;1665761727.7459693;46.9764933;7.179167199999999;58.6400032043457;1665761727.876759;11.556875228881836;-3.012838363647461;-51.39271926879883
277;1665761727.9411743;46.9764991;7.1791594;58.61000442504883;1665761728.0865946;13.655470848083496;-2.653172254562378;-52.500728607177734
278;1665761728.1422248;46.9765036;7.1791531;58.551002502441406;1665761728.2856984;13.6441068649292;-5.81884765625;-53.17385482788086
279;1665761728.3442588;46.976506699999995;7.179148199999999;58.47300338745117;1665761728.476017;10.594901084899902;0.4384298622608185;-53.43339538574219
280;1665761728.545316;46.9765088;7.1791443;58.39600372314453;1665761728.681955;6.015135765075684;3.241340398788452;-52.84635543823242
281;1665761728.7434468;46.976510399999995;7.1791415;58.33200454711914;1665761728.902532;1.3443453311920166;0.7505477070808411;-52.290916442871094
282;1665761728.9591372;46.9765119;7.1791393;58.28900146484375;1665761729.0996811;0.49502262473106384;1.7145694494247437;-52.634037017822266
283;1665761729.1631231;46.9765133;7.1791374;58.26700210571289;1665761729.3026886;1.0324788093566895;1.0429346561431885;-53.85966873168945
284;1665761729.3632023;46.976514699999996;7.1791355;58.272003173828125;1665761729.5008218;1.1786211729049683;-0.3207171857357025;-55.07222366333008
285;1665761729.5623066;46.976515899999995;7.1791338;58.302001953125;1665761729.6979713;0.7402666211128235;1.5013505220413208;-56.936058044433594
286;1665761729.7614105;46.9765168;7.1791320999999995;58.35900115966797;1665761729.9068356;1.7148126363754272;1.1116306781768799;-56.64663314819336
287;1665761729.9722242;46.976517799999996;7.1791309;58.44200134277344;1665761730.2251382;2.169250965118408;-1.154193639755249;-56.06105422973633
288;1665761730.2807748;46.9765186;7.1791301999999995;58.531002044677734;1665761730.4213223;-13.95604419708252;1.1854956150054932;-51.99765396118164
289;1665761730.4789062;46.976519599999996;7.179129499999999;58.618003845214844;1665761730.6135945;-31.695051193237305;-2.052041530609131;-49.57570266723633
290;1665761730.680938;46.976521299999995;7.179127599999999;58.70700454711914;1665761730.8205044;-42.7462158203125;-3.8677480220794678;-49.7968635559082
291;1665761731.052118;46.9765241;7.1791233;58.77400207519531;1665761731.2092533;-42.937232971191406;0.4211271107196808;-53.15584182739258
292;1665761731.2697673;46.9765282;7.179116499999999;58.785003662109375;1665761731.4190948;-33.020774841308594;0.26838168501853943;-52.868526458740234
293;1665761731.485461;46.9765334;7.1791073;58.77800369262695;1665761731.62796;-30.72638702392578;-1.7644106149673462;-50.565120697021484
294;1665761731.6826143;46.9765393;7.1790965;58.816001892089844;1665761731.826091;-33.77012634277344;-2.2635815143585205;-48.62739181518555
295;1665761731.8856215;46.9765458;7.1790844;58.89500427246094;1665761732.0261667;-37.45891189575195;-0.4804558753967285;-49.911319732666016
296;1665761732.0974162;46.9765528;7.1790715;58.94700241088867;1665761732.2321029;-42.59502410888672;-0.428683876991272;-49.28384017944336
297;1665761732.3023744;46.9765606;7.1790574;58.99800109863281;1665761732.4390147;-45.349456787109375;0.4647679924964905;-49.976226806640625
298;1665761732.497574;46.9765693;7.1790419;59.0420036315918;1665761732.6400712;-45.646846771240234;0.10259765386581421;-49.0240592956543
299;1665761732.6996078;46.9765788;7.1790251;59.073001861572266;1665761732.838201;-46.31425857543945;1.073655605316162;-50.46332931518555
300;1665761732.9006913;46.9765892;7.1790069;59.09300231933594;1665761733.0470679;-47.08378601074219;1.007473349571228;-50.36729431152344
301;1665761733.1085522;46.9766002;7.1789876999999995;59.108001708984375;1665761733.25007;-47.5943603515625;0.4898602366447449;-49.993656158447266
302;1665761733.312534;46.976611999999996;7.1789676;59.11900329589844;1665761733.9355302;-48.02885437011719;0.20244276523590088;-49.94783020019531
303;1665761733.996041;46.9766243;7.1789467;59.125003814697266;1665761734.1365876;-48.02153396606445;-0.36906033754348755;-49.28957748413086
304;1665761734.1931944;46.9766371;7.178924899999999;59.12300109863281;1665761734.847663;-47.90507125854492;-0.8942711353302002;-48.668426513671875
305;1665761734.9169593;46.9766504;7.178902399999999;59.1150016784668;1665761735.069214;-47.83305358886719;-1.2957714796066284;-48.261775970458984
306;1665761735.1258228;46.976664;7.1788791;59.103004455566406;1665761735.2644165;-47.720741271972656;-1.1050931215286255;-48.191680908203125
307;1665761735.3317595;46.9766779;7.1788554;59.092002868652344;1665761735.4849916;-47.30504608154297;-0.9154860377311707;-48.58131790161133
308;1665761735.54941;46.9766921;7.1788311;59.07500457763672;1665761735.700688;-47.00772476196289;-0.8275070786476135;-48.93870544433594
309;1665761735.7592468;46.9767065;7.178806499999999;59.05900192260742;1665761735.9007666;-46.95839309692383;-0.5672584772109985;-49.33225631713867
310;1665761735.9671323;46.976721;7.1787814999999995;59.0410041809082;1665761736.1106067;-46.797245025634766;-0.5699648857116699;-49.23542785644531
311;1665761736.1691666;46.9767357;7.178756099999999;59.02100372314453;1665761736.310686;-46.711238861083984;-0.4500740170478821;-49.4039306640625
312;1665761736.3721735;46.976750599999995;7.1787304999999995;59.006004333496094;1665761736.514672;-46.76572036743164;-0.5811337828636169;-48.89667510986328
313;1665761736.5790856;46.9767655;7.1787047;58.99700164794922;1665761736.726941;-45.376502990722656;-0.7488753199577332;-48.945621490478516
314;1665761736.7884307;46.9767806;7.1786787;58.980003356933594;1665761736.9375596;-35.85662078857422;1.7276756763458252;-49.2719841003418
315;1665761737.0070586;46.976795499999994;7.178653;58.954002380371094;1665761737.1602879;-27.695852279663086;-1.2135767936706543;-49.63736343383789
316;1665761737.228611;46.976810099999994;7.1786281999999995;58.92200469970703;1665761737.3720806;-20.69644546508789;-0.7708358764648438;-49.75217056274414
317;1665761737.430644;46.9768238;7.1786046;58.893001556396484;1665761737.5780172;-13.78305721282959;-1.0040396451950073;-49.43544006347656
318;1665761737.640479;46.976836399999996;7.1785827;58.868003845214844;1665761737.7839515;-7.63223123550415;-0.2964033782482147;-49.416255950927734
319;1665761737.8434906;46.976847899999996;7.1785628;58.85600280761719;1665761737.9928164;-2.8215084075927734;-0.23155857622623444;-49.457881927490234
320;1665761738.053331;46.9768581;7.178545;58.83900451660156;1665761738.1958234;3.1652441024780273;-1.3202694654464722;-48.908382415771484
321;1665761738.2631729;46.976867;7.1785293999999995;58.81700134277344;1665761738.4027355;9.643253326416016;1.4894742965698242;-50.09659957885742
322;1665761738.4681275;46.9768744;7.1785163;58.77700424194336;1665761738.610623;12.837408065795898;-0.48393771052360535;-50.505245208740234
323;1665761738.6789432;46.9768805;7.1785057;58.71900177001953;1665761738.8272984;11.258347511291504;-1.429351806640625;-50.338523864746094
324;1665761738.885856;46.976884999999996;7.1784975;58.66200256347656;1665761739.0507996;8.345060348510742;-1.6997079849243164;-49.264381408691406
325;1665761739.106433;46.9768884;7.178491299999999;58.62800216674805;1665761739.2450233;1.6007471084594727;0.3052781820297241;-47.86640167236328
326;1665761739.308463;46.976891099999996;7.1784864;58.63300323486328;1665761739.46072;-0.9056119322776794;-0.45576605200767517;-47.113101959228516
327;1665761739.518306;46.9768933;7.1784823;58.6670036315918;1665761739.6549437;-3.1993467807769775;0.26821213960647583;-47.573570251464844
328;1665761739.727168;46.9768954;7.178478699999999;58.70700454711914;1665761739.8628316;-2.9889912605285645;0.44104817509651184;-47.779327392578125
329;1665761739.919441;46.9768974;7.1784754;58.74800109863281;1665761740.07335;-2.0868797302246094;1.1850507259368896;-48.1162109375
330;1665761740.1368012;46.9768994;7.1784722;58.78400421142578;1665761740.2822218;0.11705616116523743;0.14844219386577606;-48.20252227783203
331;1665761740.3407824;46.976901399999996;7.178469199999999;58.81700134277344;1665761740.4969413;1.0391112565994263;-0.15067759156227112;-48.63169479370117
332;1665761740.5633097;46.9769033;7.178466299999999;58.846004486083984;1665761740.7106848;1.622207522392273;0.39825838804244995;-48.73084259033203
333;1665761740.7751067;46.9769049;7.1784639;58.86900329589844;1665761740.9117436;0.8001996874809265;0.3259517550468445;-48.91191101074219
334;1665761740.977135;46.976906199999995;7.178462;58.8900032043457;1665761741.2221086;-0.2205362468957901;0.020240474492311478;-49.58554458618164
335;1665761741.2875016;46.9769073;7.1784604;58.90700149536133;1665761741.4309754;-1.4440889358520508;-0.3168509602546692;-49.9233283996582
336;1665761741.495392;46.976908099999996;7.1784592;58.923004150390625;1665761741.631053;-2.4356613159179688;-0.29058703780174255;-50.17546081542969
337;1665761741.6915662;46.9769088;7.1784582;58.936004638671875;1665761741.8350368;-3.290745973587036;0.008073361590504646;-50.25832748413086
338;1665761741.8955579;46.9769094;7.1784574999999995;58.94900131225586;1665761742.0331745;-1.0887397527694702;9.0587739944458;-44.31931686401367
339;1665761742.0946648;46.97691;7.1784569;59.00400161743164;1665761742.2478964;1.9916497468948364;8.1408109664917;-34.233612060546875
340;1665761742.3093827;46.9769108;7.178457099999999;59.13300323486328;1665761742.440167;-1.4056602716445923;13.811073303222656;-23.563724517822266
341;1665761742.5045817;46.9769116;7.1784582;59.329002380371094;1665761742.6626964;-6.75605583190918;15.472155570983887;-13.143805503845215
342;1665761742.7339435;46.9769126;7.1784605;59.5880012512207;1665761742.8940067;-11.591312408447266;13.686616897583008;-3.563002109527588
343;1665761742.9594;46.9769139;7.1784637;59.9010009765625;1665761743.1106803;-20.822216033935547;19.600488662719727;7.748682022094727
344;1665761743.2785506;46.9769158;7.178468;60.26000213623047;1665761743.43471;-32.01887512207031;18.747730255126953;20.259653091430664
345;1665761743.4903498;46.976918399999995;7.1784741;60.63300323486328;1665761743.625032;-39.14749526977539;12.998393058776855;31.292102813720703
346;1665761743.697254;46.9769223;7.1784821;60.99800109863281;1665761743.8417037;-41.82478332519531;5.657885551452637;39.56413650512695
347;1665761743.9129493;46.976927499999995;7.1784924;61.35200119018555;1665761744.074966;-43.25668716430664;-0.8990153670310974;44.015220642089844
348;1665761744.1403596;46.976934;7.1785045;61.70700454711914;1665761744.2994478;-46.9444694519043;3.2771170139312744;31.759910583496094
349;1665761744.3609385;46.976942099999995;7.1785179999999995;62.02100372314453;1665761744.5200365;-46.09358215332031;12.177301406860352;20.06292152404785
350;1665761744.5844529;46.9769517;7.1785327;62.302001953125;1665761745.020156;-44.72819519042969;19.19362449645996;12.20045280456543
351;1665761745.0582197;46.9769629;7.1785486999999994;62.5680046081543;1665761745.1294694;-42.41587448120117;24.499755859375;4.720841884613037
352;1665761745.1665564;46.9769753;7.1785656;62.82400131225586;1665761745.2690413;-37.16032409667969;30.91777801513672;-5.919363021850586
353;1665761745.3110032;46.976988999999996;7.1785837;63.079002380371094;1665761745.4203176;-30.921152114868164;34.48046875;-13.372385025024414
354;1665761745.4739947;46.977003499999995;7.1786027;63.342002868652344;1665761745.6243007;-30.09096336364746;34.721092224121094;-0.9660823941230774
355;1665761745.6799328;46.9770185;7.178622799999999;63.6150016784668;1665761745.8185236;-28.994871139526367;26.976099014282227;16.96748924255371
356;1665761745.87318;46.977033399999996;7.1786442;63.91100311279297;1665761746.00982;-31.180980682373047;18.14912986755371;28.68117904663086
357;1665761746.074235;46.9770477;7.178666499999999;64.23800659179688;1665761746.2186847;-37.37697982788086;8.260517120361328;35.05231475830078
358;1665761746.2777998;46.9770614;7.1786889;64.60000610351562;1665761746.406658;-45.966609954833984;3.35447359085083;39.94996643066406
359;1665761746.4642391;46.977075299999996;7.178711799999999;64.98500061035156;1665761746.6184504;-50.79051971435547;-2.791147470474243;45.53352355957031
360;1665761746.700434;46.97709;7.1787353;65.3530044555664;1665761746.9297931;-50.37894058227539;-7.219367027282715;48.24943923950195
361;1665761746.9932318;46.977105599999994;7.1787595;65.69800567626953;1665761747.143541;-45.167930603027344;-7.762167930603027;45.042877197265625
362;1665761747.2020974;46.9771222;7.1787838;66.04300689697266;1665761747.3504481;-35.89694595336914;-4.846877098083496;43.13368225097656
363;1665761747.4060814;46.977139099999995;7.178807399999999;66.38800048828125;1665761747.5622413;-26.308515548706055;-1.8313159942626953;43.09542465209961
364;1665761747.613969;46.9771557;7.1788295;66.71500396728516;1665761747.7496326;-16.570491790771484;0.1992526352405548;43.07307434082031
365;1665761747.8120968;46.9771716;7.178850499999999;67.01100158691406;1665761747.9623992;-6.710496425628662;1.624656081199646;43.65093994140625
366;1665761748.0180306;46.9771862;7.17887;67.27200317382812;1665761748.1449125;1.0430097579956055;2.5078437328338623;44.22409439086914
367;1665761748.201519;46.9771991;7.1788875999999995;67.50300598144531;1665761748.3449907;6.573783874511719;2.691585063934326;44.099266052246094
368;1665761748.406484;46.977210299999996;7.178903099999999;67.7040023803711;1665761748.5509267;10.986672401428223;2.4212141036987305;44.2093391418457
369;1665761748.6104622;46.9772197;7.1789163;67.8810043334961;1665761748.75296;12.508203506469727;1.3362094163894653;44.080684661865234
370;1665761748.8173754;46.977227199999994;7.1789271999999995;68.04400634765625;1665761748.9598708;14.98643684387207;0.6352683901786804;44.53877639770508
371;1665761749.0311182;46.9772332;7.1789356;68.18500518798828;1665761749.1726382;13.841514587402344;1.1088371276855469;42.793487548828125
372;1665761749.2497463;46.977237599999995;7.1789423;68.30000305175781;1665761749.3883357;8.086150169372559;-0.6369527578353882;43.028724670410156
373;1665761749.451776;46.9772408;7.1789476;68.39000701904297;1665761749.6040318;0.284923255443573;-0.8397545218467712;42.357120513916016
374;1665761749.6713767;46.977243099999995;7.1789515999999995;68.4729995727539;1665761750.027119;-7.020346164703369;-1.6337695121765137;41.42496109008789
375;1665761750.1003208;46.977244999999996;7.1789549;68.55400085449219;1665761750.2330563;-8.718096733093262;-2.1008217334747314;39.91168212890625
376;1665761750.295518;46.977246799999996;7.1789578999999994;68.625;1665761750.4409432;-7.815081596374512;-2.0485291481018066;38.162437438964844
377;1665761750.5102396;46.977248599999996;7.1789603;68.68700408935547;1665761750.652736;-6.496592044830322;-0.10625402629375458;37.47111511230469
378;1665761750.7210567;46.977250399999996;7.1789627;68.74200439453125;1665761750.8625748;-4.523110866546631;-0.20870643854141235;36.95360565185547
379;1665761750.926016;46.977252199999995;7.1789651;68.78900146484375;1665761751.074367;-1.8924109935760498;-0.1488833874464035;35.577030181884766
380;1665761751.2334547;46.9772539;7.1789673;68.8290023803711;1665761751.383758;0.0839865431189537;-1.120586633682251;34.172027587890625
381;1665761751.4501293;46.9772554;7.178969299999999;68.86600494384766;1665761752.0436409;3.091350793838501;-0.7131921052932739;33.757904052734375
382;1665761752.109003;46.9772568;7.178971;68.89300537109375;1665761752.2388098;3.8270835876464844;-0.27679315209388733;34.21638870239258
383;1665761752.296393;46.977258;7.1789722;68.91699981689453;1665761752.4500482;6.950835227966309;6.778587341308594;37.13814926147461
384;1665761752.5105567;46.9772587;7.178973099999999;68.93700408935547;1665761752.656959;10.698468208312988;12.580636024475098;44.75526809692383
385;1665761752.7145412;46.9772587;7.1789741;68.9530029296875;1665761752.855087;4.102231979370117;28.818042755126953;56.25117111206055
386;1665761752.9224315;46.977257699999996;7.1789754;68.96900177001953;1665761753.0659087;-9.763940811157227;47.317955017089844;66.77690124511719
387;1665761753.12544;46.9772551;7.1789784;68.96400451660156;1665761753.2786715;-21.206762313842773;34.89889907836914;78.79846954345703
388;1665761753.352846;46.9772506;7.178983499999999;68.9280014038086;1665761753.5031557;-29.278240203857422;23.777910232543945;89.7552261352539
389;1665761753.5626857;46.9772447;7.178990499999999;68.90900421142578;1665761753.7003028;-37.36593246459961;19.871694564819336;101.46465301513672
390;1665761753.759839;46.977237699999996;7.1789993999999995;68.9330062866211;1665761753.899407;-41.948978424072266;13.009119987487793;114.52069854736328
391;1665761753.9726048;46.9772296;7.1790103;68.99500274658203;1665761754.1072948;-41.84286880493164;7.2254533767700195;125.43019104003906
392;1665761754.1687806;46.977220599999995;7.179022799999999;69.05400085449219;1665761754.3063986;-43.283668518066406;1.3974233865737915;123.71590423583984
393;1665761754.388381;46.977210799999995;7.1790367999999996;69.10400390625;1665761754.5406375;-44.55665588378906;7.734007358551025;108.57157135009766
394;1665761754.6011496;46.977200599999996;7.1790527;69.14400482177734;1665761754.7329087;-45.007633209228516;14.79212474822998;99.21077728271484
395;1665761754.802205;46.9771901;7.1790704;69.16500091552734;1665761754.9652026;-42.80890655517578;22.062654495239258;89.76449584960938
396;1665761755.0325446;46.9771795;7.1790897;69.16900634765625;1665761755.1716495;-36.44837951660156;26.263713836669922;79.05396270751953
397;1665761755.2497296;46.9771688;7.1791104;69.16100311279297;1665761755.482994;-25.219425201416016;24.71426773071289;64.44145965576172
398;1665761755.548386;46.9771581;7.179132;69.14600372314453;1665761755.6820998;-16.354162216186523;24.482688903808594;55.329856872558594
399;1665761755.7455392;46.9771481;7.179153899999999;69.13200378417969;1665761755.8870595;-14.376246452331543;31.792787551879883;68.25728607177734
400;1665761755.9739234;46.9771382;7.1791754999999995;69.12600708007812;1665761756.1076338;-21.41669464111328;37.51277160644531;89.41529083251953
401;1665761756.1691241;46.9771277;7.1791965;69.12700653076172;1665761756.3018591;-35.99647903442383;30.995052337646484;108.42479705810547
402;1665761756.3818934;46.977115999999995;7.1792167;69.14400482177734;1665761756.6053946;-45.784366607666016;18.209476470947266;119.05606842041016
403;1665761756.6688352;46.9771029;7.1792362999999995;69.16600036621094;1665761756.80645;-49.03493118286133;7.225470542907715;124.27376556396484
404;1665761756.8845387;46.9770891;7.179256499999999;69.17400360107422;1665761757.024099;-48.8184814453125;-1.9228932857513428;128.769775390625
405;1665761757.109989;46.9770748;7.1792777999999995;69.16699981689453;1665761757.2466269;-48.617637634277344;-5.878964424133301;133.81813049316406
406;1665761757.3051891;46.9770605;7.1793004;69.15900421142578;1665761757.4437792;-48.58155059814453;-7.596827030181885;133.12582397460938
407;1665761757.5052712;46.977046099999995;7.1793242;69.14700317382812;1665761757.628242;-48.704010009765625;-5.851721286773682;130.47532653808594
408;1665761757.691681;46.9770317;7.1793491;69.1310043334961;1665761757.832225;-49.05260467529297;-2.6178102493286133;129.09046936035156
409;1665761757.9005475;46.977017499999995;7.1793748;69.12000274658203;1665761758.038162;-48.892913818359375;-0.8695036768913269;128.62850952148438
410;1665761758.1172192;46.9770031;7.1794014;69.1050033569336;1665761758.2606912;-41.6446533203125;1.1412395238876343;129.13059997558594
411;1665761758.325105;46.9769887;7.1794284;69.07600402832031;1665761758.4529634;-33.40021896362305;0.23657545447349548;130.2335662841797
412;1665761758.534746;46.976974399999996;7.179454799999999;69.04100036621094;1665761758.6635785;-24.844993591308594;1.2425330877304077;129.9276885986328
413;1665761758.7250657;46.9769606;7.1794803;69.0040054321289;1665761758.8626835;-14.732669830322266;1.6467307806015015;130.12747192382812
414;1665761758.9329555;46.976947599999995;7.1795041;68.97200012207031;1665761759.0666654;-5.180205345153809;2.5654377937316895;130.10963439941406
415;1665761759.1271772;46.9769357;7.179525699999999;68.95000457763672;1665761759.277483;3.516895294189453;2.698195219039917;129.42283630371094
416;1665761759.3379946;46.976925099999995;7.179544399999999;68.93700408935547;1665761759.4775612;9.3180570602417;1.5619679689407349;129.5242919921875
417;1665761759.5468602;46.976915999999996;7.1795602999999995;68.91900634765625;1665761759.6883852;14.150485038757324;2.679048776626587;127.70999908447266
418;1665761759.7498648;46.9769083;7.1795732999999995;68.88700103759766;1665761759.8757703;16.43362808227539;2.810340404510498;124.7863998413086
419;1665761759.950925;46.976901999999995;7.179583399999999;68.84500122070312;1665761760.1031797;15.278528213500977;-2.891935110092163;131.2237091064453
420;1665761760.1597888;46.976897199999996;7.1795912;68.78700256347656;1665761760.2925227;15.450248718261719;2.8103010654449463;132.65805053710938
421;1665761760.355961;46.9768937;7.1795968;68.70899963378906;1665761760.4906497;11.574506759643555;1.9637377262115479;130.74607849121094
422;1665761760.554091;46.9768914;7.1796003;68.64800262451172;1665761760.6868253;2.647043228149414;-0.5356770157814026;128.24554443359375
423;1665761760.752219;46.9768897;7.179602399999999;68.6300048828125;1665761760.8908103;-9.770376205444336;-0.9777324795722961;127.12245178222656
424;1665761760.9571803;46.9768883;7.179603999999999;68.6550064086914;1665761761.091943;-16.364131927490234;-0.0617695115506649;126.02052307128906
425;1665761761.155386;46.976886799999996;7.1796057;68.69700622558594;1665761761.3144722;-19.547271728515625;-2.565352201461792;125.52050018310547
426;1665761761.3847423;46.9768851;7.179608;68.74000549316406;1665761761.5145493;-17.268051147460938;-1.4516441822052002;124.57937622070312
427;1665761761.5877512;46.9768833;7.179610899999999;68.77900695800781;1665761761.737077;-12.60750675201416;-2.3555655479431152;124.84774017333984
428;1665761761.8034506;46.9768815;7.1796143;68.81600189208984;1665761761.9430134;-8.409943580627441;-0.9737317562103271;124.22286987304688
429;1665761762.0132854;46.9768797;7.179618;68.84600067138672;1665761762.1528528;-4.936459064483643;-1.2774866819381714;123.37236022949219
430;1665761762.216295;46.976878;7.1796216;68.86900329589844;1665761762.3744051;-0.9163398146629333;-1.1825579404830933;122.51681518554688
431;1665761762.4388263;46.976876499999996;7.179624899999999;68.88400268554688;1665761762.5676565;0.7764286994934082;-0.8218997716903687;122.5193099975586
432;1665761762.6408534;46.9768754;7.179627699999999;68.89600372314453;1665761762.7745643;2.4072656631469727;-0.6219363808631897;122.60810089111328
433;1665761762.8487413;46.9768745;7.179629899999999;68.9070053100586;1665761762.9883082;3.601081371307373;-0.2595224976539612;122.7944564819336
434;1665761763.066394;46.9768739;7.1796314;68.91699981689453;1665761763.206938;4.280516624450684;4.305213451385498;125.07127380371094
435;1665761763.2733068;46.976873499999996;7.1796324;68.875;1665761763.4314191;9.621519088745117;10.545814514160156;135.403564453125
436;1665761763.4968104;46.9768732;7.179632799999999;68.71500396728516;1665761763.6256435;9.448372840881348;24.286684036254883;146.22438049316406
437;1665761763.6900609;46.9768727;7.179632;68.53600311279297;1665761763.8169374;-1.093798279762268;42.75984191894531;156.30255126953125
438;1665761763.8872113;46.976871599999996;7.1796292;68.34600067138672;1665761764.037516;-15.695197105407715;39.30820083618164;167.15554809570312
439;1665761764.1087618;46.976869199999996;7.1796237;68.13800048828125;1665761764.2366185;-24.128931045532227;23.57073402404785;-175.497802734375
440;1665761764.3176286;46.976865499999995;7.179615999999999;67.95100402832031;1665761764.447434;-28.6193904876709;14.886531829833984;-164.47705078125
441;1665761764.5362515;46.976860699999996;7.1796067;67.8010025024414;1665761764.6689873;-28.93082618713379;7.82141637802124;-159.9891815185547
442;1665761764.733401;46.976855;7.1795968;67.67300415039062;1665761764.8758996;-24.09296417236328;3.4541501998901367;-153.901123046875
443;1665761764.9471483;46.976848499999996;7.1795865999999995;67.5510025024414;1665761765.0955076;-18.567380905151367;-0.8727076649665833;-147.19703674316406
444;1665761765.1599135;46.9768416;7.1795765;67.42200469970703;1665761765.2985077;-14.124066352844238;-4.032535552978516;-139.33544921875
445;1665761765.361948;46.976834499999995;7.1795668;67.27900695800781;1665761765.4956586;-9.843137741088867;-4.9043474197387695;-132.62303161621094
446;1665761765.5776436;46.9768274;7.1795577999999995;67.1259994506836;1665761765.711358;-9.939858436584473;-3.763862133026123;-132.9823760986328
447;1665761765.7757697;46.9768204;7.1795493;66.96700286865234;1665761766.0178173;-12.157857894897461;-1.576336145401001;-134.03895568847656
448;1665761766.082236;46.976813899999996;7.1795414;66.80400085449219;1665761766.227658;-14.56944465637207;0.13678567111492157;-134.27207946777344
449;1665761766.3877234;46.9768076;7.1795339;66.63899993896484;1665761766.52046;-18.338926315307617;0.9705243706703186;-134.2544708251953
450;1665761766.5956147;46.9768015;7.1795266;66.47600555419922;1665761766.7283456;-21.340538024902344;1.4976882934570312;-134.22152709960938
451;1665761766.8064272;46.976795599999996;7.1795193;66.31100463867188;1665761766.9479482;-21.10529136657715;2.176830768585205;-134.6052703857422
452;1665761767.0182173;46.9767898;7.179511799999999;66.14500427246094;1665761767.1499794;-22.332775115966797;2.029820203781128;-133.97569274902344
453;1665761767.2300103;46.976784099999996;7.1795041;65.98200225830078;1665761767.3598177;-22.285423278808594;1.494109034538269;-133.99363708496094
454;1665761767.4252121;46.976778499999995;7.1794962;65.82100677490234;1665761767.591132;-21.391332626342773;0.9289630651473999;-133.91200256347656
455;1665761767.654125;46.9767728;7.1794880999999995;65.6570053100586;1665761767.7888134;-21.659923553466797;1.0934951305389404;-134.28695678710938
456;1665761767.8571386;46.976766999999995;7.179479799999999;65.49800109863281;1665761767.9908433;-20.66255760192871;0.8015059232711792;-134.1552276611328
457;1665761768.0659986;46.9767613;7.1794715;65.33800506591797;1665761768.2153246;-22.060331344604492;0.9016727805137634;-134.6769561767578
458;1665761768.28462;46.9767557;7.1794632;65.18099975585938;1665761768.433947;-22.69627571105957;0.7353479266166687;-135.00665283203125
459;1665761768.5042248;46.9767501;7.179455;65.02899932861328;1665761768.6457443;-23.320056915283203;0.5017761588096619;-135.2283935546875
460;1665761768.7355354;46.976744599999996;7.1794468;64.87700653076172;1665761768.8741252;-22.735000610351562;0.24032868444919586;-135.4829864501953
461;1665761768.9453747;46.9767388;7.1794383999999996;64.72400665283203;1665761769.086894;-23.01420783996582;0.027700096368789673;-135.2215576171875
462;1665761769.163022;46.976732899999995;7.17943;64.56800079345703;1665761769.3143013;-22.90396499633789;0.1179405227303505;-135.18727111816406
463;1665761769.3865235;46.976727;7.179421499999999;64.41200256347656;1665761769.5143836;-23.138343811035156;0.4621339440345764;-135.19569396972656
464;1665761769.5787966;46.976721;7.179412999999999;64.26100158691406;1665761769.7164123;-24.48274040222168;0.4894777536392212;-135.14190673828125
465;1665761769.7964466;46.9767151;7.1794046;64.11100006103516;1665761769.9389415;-25.126964569091797;0.28830912709236145;-135.1920623779297
466;1665761770.0023808;46.976709199999995;7.179396;63.95900344848633;1665761770.1399949;-25.55634307861328;-0.1997561752796173;-134.80609130859375
467;1665761770.2131956;46.976703;7.1793872;63.80400466918945;1665761770.353739;-25.04728889465332;0.30997881293296814;-134.9549102783203
468;1665761770.4298675;46.9766967;7.1793781999999995;63.64800262451172;1665761770.5606556;-24.50910758972168;0.3595246374607086;-134.53358459472656
469;1665761770.635803;46.9766902;7.1793691;63.4900016784668;1665761770.7948956;-24.12168312072754;0.19512948393821716;-134.49630737304688
470;1665761770.8563795;46.976683799999996;7.179360099999999;63.333003997802734;1665761770.9803317;-24.270580291748047;0.7019308805465698;-134.47967529296875
471;1665761771.0408432;46.9766774;7.1793511;63.177001953125;1665761771.183341;-24.539913177490234;0.23076307773590088;-133.9425811767578
472;1665761771.267275;46.9766711;7.179342;63.01700210571289;1665761771.4136765;-24.65652847290039;-0.18193419277668;-134.0991668701172
473;1665761771.4810188;46.9766646;7.1793328;62.85200119018555;1665761771.8928914;-23.86526107788086;0.06359848380088806;-133.88844299316406
474;1665761771.980733;46.976658;7.1793233999999995;62.68400192260742;1665761772.15253;-23.632373809814453;0.415942907333374;-134.24427795410156
475;1665761772.210121;46.976651499999996;7.179314199999999;62.513004302978516;1665761772.3604188;-23.961843490600586;0.7915961742401123;-134.306640625
476;1665761772.4336193;46.9766449;7.1793049;62.342002868652344;1665761772.5848997;-24.371021270751953;0.45914843678474426;-134.12786865234375
477;1665761772.6610298;46.9766384;7.1792957;62.17200469970703;1665761772.8005948;-25.028718948364258;0.550948977470398;-134.09861755371094
478;1665761772.8659859;46.9766319;7.1792864;61.99700164794922;1665761773.1119397;-24.715126037597656;0.03423561528325081;-133.71224975585938
479;1665761773.1724503;46.976625399999996;7.1792769;61.81900405883789;1665761773.3090909;-24.291669845581055;0.20945557951927185;-133.9764862060547
480;1665761773.3852189;46.9766188;7.1792674;61.6410026550293;1665761773.5189292;-23.242908477783203;0.32891517877578735;-134.0023956298828
481;1665761773.583346;46.976611999999996;7.179257799999999;61.46200180053711;1665761773.7248697;-23.678619384765625;0.31482794880867004;-133.94410705566406
482;1665761773.8009944;46.976605299999996;7.1792482;61.28200149536133;1665761773.9835067;-23.749425888061523;0.5990955233573914;-133.93898010253906
483;1665761774.0547533;46.976598599999996;7.1792387;61.10200119018555;1665761774.1943212;-24.219284057617188;0.22695623338222504;-133.68418884277344
484;1665761774.2538633;46.976591899999995;7.1792291;60.919002532958984;1665761774.4139218;-25.21834945678711;-0.08530278503894806;-133.7631072998047
485;1665761774.4822419;46.976585299999996;7.1792194;60.73400115966797;1665761774.6227856;-23.931947708129883;-0.32514598965644836;-133.97647094726562
486;1665761774.6862261;46.9765784;7.1792096;60.54700469970703;1665761774.834282;-23.688495635986328;0.18135404586791992;-133.848876953125
487;1665761774.896747;46.9765714;7.1791997;60.36100387573242;1665761775.106588;-20.742565155029297;0.6990147233009338;-133.51634216308594
488;1665761775.1846678;46.976564499999995;7.1791899;60.17000198364258;1665761775.3210065;-19.968488693237305;1.122336745262146;-132.91729736328125
489;1665761775.3942084;46.976557799999995;7.1791804;59.980003356933594;1665761775.5406094;-15.408551216125488;0.6709260940551758;-133.06178283691406
490;1665761775.602094;46.9765513;7.1791711;59.80600357055664;1665761775.7426383;-12.402087211608887;1.3324754238128662;-132.530517578125
491;1665761775.811935;46.9765454;7.1791623;59.650001525878906;1665761775.9641902;-8.740323066711426;0.8990685343742371;-132.17481994628906
492;1665761776.0344627;46.9765397;7.179154;59.50300216674805;1665761776.171102;-3.9045567512512207;1.7146391868591309;-131.5633087158203
493;1665761776.249185;46.9765346;7.1791465;59.358001708984375;1665761776.4102213;0.04128091782331467;2.1664974689483643;-130.74232482910156
494;1665761776.4795184;46.9765302;7.1791399;59.22200393676758;1665761776.6444626;3.070093870162964;2.395200729370117;-129.2694091796875
495;1665761776.736208;46.9765265;7.1791342;59.10000228881836;1665761777.0270586;6.211737632751465;2.8540117740631104;-127.17168426513672
496;1665761777.118801;46.9765236;7.179129499999999;58.99100112915039;1665761777.258368;10.12692928314209;2.8564770221710205;-126.91587829589844
497;1665761777.3247347;46.9765215;7.179125699999999;58.89800262451172;1665761777.4584467;11.699540138244629;2.587862730026245;-126.93635559082031
498;1665761777.5228622;46.976520099999995;7.179123;58.82100296020508;1665761777.6541579;12.766678810119629;-6.613131999969482;-131.5009765625
499;1665761777.7259228;46.9765193;7.1791212;58.76400375366211;1665761777.8576844;20.52880096435547;-27.541946411132812;-143.58181762695312
500;1665761777.9284704;46.9765186;7.179121299999999;58.730003356933594;1665761778.082677;20.066486358642578;-21.683393478393555;-152.54153442382812
501;1665761778.1563866;46.9765181;7.179123799999999;58.702003479003906;1665761778.335006;8.23072624206543;-28.156517028808594;-165.24143981933594
502;1665761778.4072285;46.976517799999996;7.1791285;58.695003509521484;1665761778.5243487;-5.272745132446289;-19.684459686279297;-177.4685516357422
503;1665761778.5907187;46.976517199999996;7.1791348;58.71600341796875;1665761778.7239668;-14.750504493713379;-12.583226203918457;169.78775024414062
504;1665761778.7786212;46.9765161;7.1791418;58.77700424194336;1665761778.9074554;-29.061838150024414;-14.08111572265625;157.79055786132812
505;1665761778.9806552;46.9765142;7.1791499;58.86700439453125;1665761779.12315;-39.423980712890625;-5.541690826416016;149.11788940429688
506;1665761779.1895194;46.9765109;7.179159599999999;58.96000289916992;1665761779.370086;-42.76609802246094;3.2308647632598877;145.80796813964844
507;1665761779.440354;46.9765059;7.1791706;59.031002044677734;1665761779.6470282;-40.80401611328125;8.867892265319824;143.7174530029297
508;1665761779.7120028;46.976498899999996;7.1791823;59.0780029296875;1665761779.9588587;-33.146484375;14.859978675842285;139.90133666992188
509;1665761780.0281565;46.976490399999996;7.1791941999999995;59.11300277709961;1665761780.254559;-21.34348487854004;21.07362937927246;140.6350860595703
510;1665761780.3394773;46.976480699999996;7.179204899999999;59.12800216674805;1665761780.520029;0.3099204897880554;28.181629180908203;140.8098907470703
511;1665761780.6156774;46.9764708;7.179214;59.12200164794922;1665761780.759152;29.983808517456055;34.74945068359375;140.98275756835938
512;1665761780.8401613;46.9764613;7.1792197;59.090003967285156;1665761780.9914382;34.091922760009766;26.110151290893555;140.79202270507812
513;1665761781.0529249;46.976453;7.1792219;58.96400451660156;1665761781.1778548;24.106874465942383;12.043335914611816;146.2754669189453
514;1665761781.244224;46.9764462;7.1792212;58.76700210571289;1665761781.3915987;16.128252029418945;9.600988388061523;146.01454162597656
515;1665761781.4647958;46.976441099999995;7.1792186;58.55900192260742;1665761781.58875;8.267953872680664;9.788979530334473;143.3565216064453
516;1665761781.6512163;46.9764372;7.179214699999999;58.3910026550293;1665761781.7829733;2.119123935699463;10.569826126098633;141.38070678710938
517;1665761781.859105;46.976434;7.1792096;58.29300308227539;1665761782.014287;-7.274501323699951;10.144457817077637;139.81973266601562
518;1665761782.0747972;46.9764309;7.1792044;58.26900100708008;1665761782.216317;-18.842321395874023;-13.324288368225098;140.56597900390625
519;1665761782.286589;46.9764276;7.1792001999999995;58.310001373291016;1665761782.422344;-15.739823341369629;-40.8350944519043;139.188232421875
520;1665761782.4926116;46.9764251;7.1791988;58.33900451660156;1665761782.6438918;-9.767671585083008;-24.79327964782715;135.07383728027344
521;1665761782.7180676;46.9764239;7.1792001;58.355003356933594;1665761782.8576367;-6.2477006912231445;-29.554847717285156;136.94642639160156
522;1665761782.937668;46.9764239;7.1792032;58.397003173828125;1665761783.0821161;-8.072121620178223;-34.395503997802734;135.9818572998047
523;1665761783.1445794;46.976425299999995;7.179208099999999;58.458003997802734;1665761783.385651;-9.177576065063477;-39.8090705871582;134.0216827392578
524;1665761783.4461665;46.9764279;7.1792150999999995;58.52300262451172;1665761783.6228197;-0.2935295104980469;-37.15031051635742;135.60382080078125
525;1665761783.723348;46.976431899999994;7.179224;58.58500289916992;1665761783.9254835;-5.838759899139404;-22.65353775024414;136.2607421875
526;1665761783.984041;46.976437;7.1792339;58.66100311279297;1665761784.2534182;-19.216495513916016;16.228729248046875;130.01858520507812
527;1665761784.355898;46.9764419;7.1792435999999995;58.74200439453125;1665761784.5149841;-26.641529083251953;39.625919342041016;130.0516357421875
528;1665761784.5901372;46.976445;7.1792519;58.7390022277832;1665761784.7658198;-18.618064880371094;16.20145034790039;139.4105987548828
529;1665761784.8809872;46.976445999999996;7.1792586;58.676002502441406;1665761785.0137224;-6.303048610687256;13.670149803161621;139.30320739746094
530;1665761785.082043;46.9764456;7.179263799999999;58.64400100708008;1665761785.4343781;-4.498893737792969;25.611370086669922;141.52638244628906
531;1665761785.5153873;46.976444199999996;7.1792675;58.65300369262695;1665761785.6412895;-8.128504753112793;27.939289093017578;145.30130004882812
532;1665761785.7096078;46.9764415;7.1792693;58.68700408935547;1665761785.855034;-15.553658485412598;28.35467529296875;146.24391174316406
533;1665761785.9555643;46.976437399999995;7.1792694;58.74400329589844;1665761786.1126978;-22.428964614868164;29.665088653564453;148.2066192626953
534;1665761786.1780884;46.9764321;7.1792679999999995;58.81700134277344;1665761786.309849;-26.864206314086914;33.43840026855469;148.3905029296875
535;1665761786.3889053;46.976425;7.1792652;58.90400314331055;1665761786.5821521;-16.845706939697266;37.27653884887695;146.4221649169922
536;1665761786.653401;46.9764164;7.1792606;58.96900177001953;1665761786.792968;-6.453370094299316;33.16741180419922;143.5506591796875
537;1665761786.8593364;46.9764069;7.1792544;59.02100372314453;1665761787.0086665;-1.3260774612426758;18.632614135742188;142.50608825683594
538;1665761787.0730827;46.976397299999995;7.1792473999999995;59.07100296020508;1665761787.2595003;6.944396018981934;-6.423528671264648;141.6182861328125
539;1665761787.3375766;46.976388199999995;7.1792406;59.10900115966797;1665761787.4830008;15.26844310760498;-41.998714447021484;136.2800750732422
540;1665761787.5493686;46.9763807;7.1792352;59.06900405883789;1665761787.7250514;13.972097396850586;-21.874841690063477;138.063232421875
541;1665761787.8158166;46.976375499999996;7.179231499999999;58.926002502441406;1665761787.9631917;9.666275978088379;-18.27557945251465;137.69183349609375
542;1665761788.0285869;46.9763722;7.1792288;58.7660026550293;1665761788.2267122;5.084717750549316;-16.194366455078125;137.9183807373047
543;1665761788.3116243;46.9763704;7.179227099999999;58.631004333496094;1665761788.456072;0.398053377866745;-14.936484336853027;136.89601135253906
544;1665761788.5234184;46.9763698;7.1792262;58.53600311279297;1665761788.6698177;1.2069827318191528;-14.372940063476562;136.2608642578125
545;1665761788.7283754;46.9763701;7.1792262;58.5150032043457;1665761788.908937;2.808278799057007;-28.840656280517578;136.67437744140625
546;1665761789.0211763;46.9763713;7.1792273;58.552001953125;1665761789.15196;1.7018619775772095;-34.501808166503906;136.79197692871094
547;1665761789.2144237;46.9763738;7.179229899999999;58.61000442504883;1665761789.3744879;-0.853592574596405;-37.35129165649414;135.61061096191406
548;1665761789.4564743;46.9763776;7.1792345;58.676002502441406;1665761789.6389852;-4.479978084564209;-28.899168014526367;135.6859893798828
549;1665761789.7102327;46.976382199999996;7.1792411;58.75300216674805;1665761789.903484;-4.74605655670166;-11.693650245666504;136.23583984375
550;1665761789.9766812;46.9763871;7.1792487;58.840003967285156;1665761790.1640763;-2.144951343536377;0.9042328000068665;136.14089965820312
551;1665761790.2597227;46.9763916;7.1792563;58.923004150390625;1665761790.4275956;-3.380483865737915;-10.24366283416748;136.1027069091797
552;1665761790.514456;46.9763956;7.179263499999999;58.99900436401367;1665761790.694041;-7.514320373535156;-4.09706974029541;137.1563720703125
553;1665761790.8589833;46.976399199999996;7.1792707;59.06200408935547;1665761791.0005066;-16.405916213989258;16.339887619018555;137.28604125976562
554;1665761791.0688255;46.9764018;7.179277399999999;59.1150016784668;1665761791.205463;-25.56334686279297;21.15853500366211;140.9734344482422
555;1665761791.2747612;46.9764024;7.179283099999999;59.14600372314453;1665761791.4045691;-28.749011993408203;15.702569961547852;142.7228546142578
556;1665761791.4709356;46.9764011;7.1792883;59.1660041809082;1665761791.597818;-33.29181671142578;12.330010414123535;145.1041717529297
557;1665761791.6729703;46.976397999999996;7.1792935;59.19600296020508;1665761791.8086321;-37.58340072631836;7.141810417175293;149.01800537109375
558;1665761791.872072;46.9763929;7.179298999999999;59.23500442504883;1665761792.01164;-36.80897903442383;2.666598320007324;147.65306091308594
559;1665761792.079961;46.976386;7.1793055;59.28200149536133;1665761792.2097676;-36.34292984008789;-0.8021384477615356;143.5194854736328
560;1665761792.2741823;46.976377799999995;7.179313199999999;59.33200454711914;1665761792.437332;-36.98915481567383;-2.3098223209381104;140.068115234375
561;1665761792.5455132;46.9763685;7.1793223;59.375003814697266;1665761792.701672;-37.598228454589844;-0.39552465081214905;141.3692626953125
562;1665761792.7621832;46.976358499999996;7.1793325999999995;59.41200256347656;1665761792.898823;-38.58349609375;-2.2221286296844482;141.2441864013672
563;1665761792.959335;46.9763479;7.1793439999999995;59.4430046081543;1665761793.0891442;-40.33296203613281;-2.0863189697265625;141.19058227539062
564;1665761793.1545362;46.9763368;7.1793565;59.4630012512207;1665761793.302889;-41.65450668334961;-2.7375259399414062;141.76893615722656
565;1665761793.3692572;46.9763251;7.179369899999999;59.47500228881836;1665761793.51468;-41.509525299072266;-1.2762746810913086;141.1591796875
566;1665761793.5790975;46.976313;7.1793843;59.478004455566406;1665761793.713784;-42.47583770751953;-1.142351508140564;140.03955078125
567;1665761793.7928383;46.9763004;7.1793996;59.47700119018555;1665761793.9255764;-43.82795333862305;-0.20972353219985962;139.57652282714844
568;1665761793.9919431;46.976287299999996;7.1794154;59.47300338745117;1665761794.1383433;-45.382286071777344;-0.06220850721001625;139.7052764892578
569;1665761794.2056885;46.9762737;7.179431999999999;59.4630012512207;1665761794.344279;-47.285186767578125;0.2201857715845108;139.40182495117188
570;1665761794.4272413;46.9762595;7.1794495;59.4430046081543;1665761794.5873039;-49.11080551147461;0.47089290618896484;139.0134735107422
571;1665761794.6468408;46.976244699999995;7.179467799999999;59.42000198364258;1665761794.7698169;-50.267696380615234;0.30491897463798523;139.28836059570312
572;1665761794.827398;46.9762292;7.179487099999999;59.39400100708008;1665761795.0304065;-50.69269561767578;0.09654359519481659;139.69134521484375
573;1665761795.1045837;46.976213;7.1795072;59.36900329589844;1665761795.2597663;-50.65656280517578;-0.12283805012702942;139.8970947265625
574;1665761795.3261347;46.9761962;7.1795278;59.34800338745117;1665761795.4666812;-50.26176834106445;-0.06737306714057922;139.76234436035156
575;1665761795.5740418;46.9761789;7.179549199999999;59.329002380371094;1665761795.8121843;-49.82564926147461;0.08199921995401382;139.51382446289062
576;1665761795.878552;46.9761611;7.1795713;59.307003021240234;1665761796.0190945;-49.370052337646484;0.15763676166534424;139.3756561279297
577;1665761796.0844903;46.976143;7.1795938999999995;59.28600311279297;1665761796.2269833;-49.01792907714844;0.04879021272063255;139.4953155517578
578;1665761796.2953038;46.9761246;7.1796169;59.27100372314453;1665761796.4231606;-48.15151596069336;-0.06905176490545273;139.65679931640625
579;1665761796.4885528;46.976105999999994;7.179640099999999;59.25700378417969;1665761796.6222646;-47.23014831542969;-0.11888501048088074;139.77386474609375
580;1665761796.6905837;46.976087199999995;7.179663499999999;59.24400329589844;1665761796.8369823;-46.00981140136719;0.027416488155722618;139.59422302246094
581;1665761796.8974948;46.976068399999996;7.1796869;59.23800277709961;1665761797.069274;-44.935943603515625;-0.22031104564666748;139.5257568359375
582;1665761797.1288066;46.976049599999996;7.1797103;59.233001708984375;1665761797.2752078;-44.35847854614258;0.169096440076828;139.2663116455078
583;1665761797.341575;46.9760308;7.179733799999999;59.228004455566406;1665761797.4704084;-44.279090881347656;0.0749157965183258;139.3253173828125
584;1665761797.5416546;46.9760121;7.1797572;59.221004486083984;1665761797.6880555;-44.51683807373047;-0.14098374545574188;139.43833923339844
585;1665761797.7544253;46.9759934;7.1797805;59.21400451660156;1665761797.8939898;-44.6648063659668;-0.0633399710059166;139.48072814941406
586;1665761797.9584067;46.9759749;7.1798037;59.20900344848633;1665761798.0930958;-45.000465393066406;-0.13772179186344147;139.73802185058594
587;1665761798.161414;46.9759564;7.1798268;59.20900344848633;1665761798.3019595;-45.352882385253906;-0.15279386937618256;139.81336975097656
588;1665761798.3683283;46.9759379;7.1798499;59.211002349853516;1665761798.5088718;-45.67761993408203;-0.15013936161994934;139.67135620117188
589;1665761798.579142;46.975919499999996;7.179873;59.208003997802734;1665761798.7099266;-45.51565170288086;-0.0664728581905365;139.42437744140625
590;1665761798.7802005;46.975901;7.1798961;59.204002380371094;1665761798.912935;-45.8116569519043;0.17845121026039124;139.30062866210938
591;1665761798.9871132;46.9758825;7.1799193;59.20000457763672;1665761799.127655;-45.81667709350586;-0.0068281665444374084;139.38504028320312
592;1665761799.1950006;46.975864;7.1799425999999995;59.195003509521484;1665761799.3199353;-45.795997619628906;-0.08516857773065567;139.60658264160156
593;1665761799.3980062;46.9758455;7.1799658;59.1930046081543;1665761800.0385306;-45.62066650390625;-0.2797532081604004;139.79580688476562
594;1665761800.0960813;46.975826999999995;7.1799889;59.19400405883789;1665761800.2307692;-45.68735122680664;-0.1979377716779709;139.7754364013672
595;1665761800.295189;46.9758084;7.1800121;59.19600296020508;1665761800.4318273;-45.47602081298828;-0.0637790784239769;139.61253356933594
596;1665761800.4962418;46.975789899999995;7.1800353999999995;59.198001861572266;1665761800.6289754;-45.155513763427734;0.07803142815828323;139.29440307617188
597;1665761800.6885238;46.9757713;7.180058799999999;59.19900131225586;1665761800.821249;-45.58229064941406;0.10036922246217728;139.3243408203125
598;1665761800.8964005;46.9757527;7.1800821;59.198001861572266;1665761801.0340178;-45.489845275878906;0.06635348498821259;139.31187438964844
599;1665761801.108192;46.9757342;7.180105299999999;59.19700241088867;1665761801.265328;-45.52973175048828;-0.027283890172839165;139.53524780273438
600;1665761801.3443868;46.975715699999995;7.1801284999999995;59.20000457763672;1665761801.975295;-45.587158203125;-0.16144560277462006;139.8072509765625
601;1665761802.0475192;46.9756971;7.1801518;59.20600128173828;1665761802.2788317;-41.0455436706543;-0.6084328293800354;140.24951171875
602;1665761802.3432448;46.975678699999996;7.180174999999999;59.19600296020508;1665761802.495501;-30.008865356445312;-0.23611773550510406;139.52505493164062
603;1665761802.5579648;46.9756607;7.1801976;59.176002502441406;1665761802.6946056;-21.74605369567871;0.9698130488395691;139.39105224609375
604;1665761802.7560956;46.9756435;7.1802192;59.15400314331055;1665761802.9005408;-13.331367492675781;1.3044120073318481;139.0327911376953
605;1665761802.973742;46.975627499999995;7.1802392;59.131004333496094;1665761803.117213;-5.156746864318848;-0.057162925601005554;138.98377990722656
606;1665761803.1796768;46.975612899999994;7.1802573;59.11300277709961;1665761803.322175;1.9186584949493408;-0.5237470865249634;141.3251953125
607;1665761803.3904932;46.9756001;7.180273199999999;59.103004455566406;1665761803.5203063;15.588213920593262;3.462494373321533;141.53932189941406
608;1665761803.591549;46.9755891;7.1802867;59.08700180053711;1665761803.7350225;24.63816261291504;-3.1859614849090576;139.51226806640625
609;1665761803.8033414;46.975580099999995;7.180297599999999;59.040000915527344;1665761803.9341254;22.364702224731445;0.08930562436580658;140.967041015625
610;1665761804.0024486;46.9755732;7.180306;58.96200180053711;1665761804.1498206;17.512393951416016;-2.0160984992980957;139.570556640625
611;1665761804.2103355;46.9755681;7.1803123;58.888004302978516;1665761804.3450208;7.771487712860107;-0.4578365087509155;138.55078125
612;1665761804.4065106;46.975564299999995;7.180317;58.8640022277832;1665761804.5392468;-2.1053991317749023;-0.6844090819358826;137.8775177001953
613;1665761804.6017127;46.975561299999995;7.1803208;58.88300323486328;1665761804.8369246;-8.862205505371094;0.5302906036376953;137.94326782226562
614;1665761804.899389;46.9755586;7.1803241;58.92500305175781;1665761805.0399337;-12.907490730285645;-0.9496328234672546;138.3602752685547
615;1665761805.1063008;46.975555899999996;7.1803273999999995;58.970001220703125;1665761805.7471344;-12.878500938415527;-0.6555715203285217;138.95516967773438
616;1665761805.8076446;46.9755531;7.1803307;59.01000213623047;1665761805.9481888;-10.110289573669434;-0.9098508358001709;139.36927795410156
617;1665761806.0184596;46.975550399999996;7.1803341;59.04900360107422;1665761806.1521733;-6.009753227233887;-1.147711992263794;139.5318145751953
618;1665761806.2175636;46.9755477;7.180337499999999;59.08100128173828;1665761806.3786032;-2.7525742053985596;-0.9088979959487915;139.29722595214844
619;1665761806.4430213;46.9755453;7.1803406;59.10900115966797;1665761806.571854;-1.218018889427185;-0.9649120569229126;138.94357299804688
620;1665761806.6401722;46.9755433;7.1803434;59.12700271606445;1665761806.7797558;-0.890269935131073;-1.1107341051101685;138.64817810058594
621;1665761806.844169;46.9755415;7.1803458;59.14200210571289;1665761806.990568;-1.3230152130126953;-0.5998793840408325;138.20925903320312
622;1665761807.057916;46.975539999999995;7.1803479;59.156002044677734;1665761807.2052891;-4.468204498291016;-0.5338582396507263;134.5276641845703
623;1665761807.270683;46.975538799999995;7.1803497;59.121002197265625;1665761807.4141562;2.4002127647399902;-3.4612832069396973;127.0955810546875
624;1665761807.4746647;46.9755378;7.1803513;58.96900177001953;1665761807.6132586;2.8261032104492188;0.34335896372795105;117.12979888916016
625;1665761807.6766958;46.975536999999996;7.180352699999999;58.788002014160156;1665761807.805535;2.6036369800567627;2.78620982170105;107.47682189941406
626;1665761807.8699474;46.975536399999996;7.1803536999999995;58.59700393676758;1665761808.0124407;1.524878740310669;-3.810809850692749;98.52550506591797
627;1665761808.0875921;46.9755359;7.1803544;58.40400314331055;1665761808.223257;2.421112060546875;-5.416284084320068;91.12837219238281
628;1665761808.2847443;46.975535799999996;7.1803551;58.21000289916992;1665761808.417482;2.11997127532959;-4.04691219329834;89.41653442382812
629;1665761808.4848244;46.975535799999996;7.1803555999999995;58.0150032043457;1665761808.6224432;2.8146958351135254;2.8305087089538574;89.47932434082031
630;1665761808.6858797;46.975535799999996;7.180356;57.81700134277344;1665761808.8225238;2.6039295196533203;1.1823763847351074;91.30249786376953
631;1665761808.8849843;46.975535799999996;7.180356199999999;57.621002197265625;1665761809.0225997;2.4793155193328857;-0.8691757917404175;92.66968536376953
632;1665761809.0870159;46.9755359;7.1803563;57.42000198364258;1665761809.2207315;1.0504716634750366;-1.1912542581558228;92.50587463378906
633;1665761809.2861235;46.975536;7.1803563;57.21900177001953;1665761809.4344716;0.5915780663490295;-0.09578552842140198;91.23722839355469
634;1665761809.4988902;46.975536;7.180356199999999;57.012001037597656;1665761809.6218648;-1.672917366027832;2.851032018661499;91.6568603515625
635;1665761809.683354;46.975536;7.180356;56.81100082397461;1665761809.8229198;-2.6089611053466797;1.7382066249847412;92.86017608642578
636;1665761809.891242;46.9755359;7.1803558999999995;56.612003326416016;1665761810.0503309;-3.395271062850952;1.5579848289489746;93.1689453125
637;1665761810.112798;46.975535799999996;7.1803557;56.41400146484375;1665761810.251386;-2.245049476623535;-0.6404032111167908;93.7741928100586
638;1665761810.3167758;46.9755356;7.1803555;56.215003967285156;1665761810.4524424;-1.4367047548294067;-1.911776065826416;94.22418212890625
639;1665761810.5149097;46.9755354;7.1803552999999996;56.0160026550293;1665761810.6554492;-0.5179908275604248;-2.347693681716919;93.946044921875
640;1665761810.7198646;46.9755353;7.1803552999999996;55.82100296020508;1665761810.8486981;0.6233260035514832;-2.8355319499969482;93.6802978515625
641;1665761810.9111602;46.9755353;7.1803555999999995;55.63200378417969;1665761811.058538;2.0142219066619873;-1.7056171894073486;93.09851837158203
642;1665761811.1210003;46.9755353;7.1803558999999995;55.44700241088867;1665761811.2625203;2.1696035861968994;-1.276807188987732;92.80902099609375
643;1665761811.3240097;46.9755353;7.1803564;55.262001037597656;1665761811.456747;1.6941001415252686;-0.35269397497177124;92.73638916015625
644;1665761811.5221362;46.9755353;7.1803567;55.07400131225586;1665761811.6617079;-0.38907283544540405;0.6283432245254517;92.33619689941406
645;1665761811.7251458;46.9755353;7.180356799999999;54.88500213623047;1665761811.8637362;-1.3246568441390991;-0.027834750711917877;92.39141845703125
646;1665761811.9262016;46.975535199999996;7.1803567;54.69700241088867;1665761812.0628417;-2.3534915447235107;0.08906014263629913;92.30498504638672
647;1665761812.129208;46.975535199999996;7.1803566;54.51400375366211;1665761812.2629225;-2.625028610229492;-0.5997909903526306;92.4798583984375
648;1665761812.3283134;46.975535199999996;7.1803564;54.33000183105469;1665761812.4581225;-3.2030723094940186;-0.5571754574775696;93.1294174194336
649;1665761812.521562;46.975535199999996;7.180356199999999;54.147003173828125;1665761812.662109;-0.33522292971611023;0.29606857895851135;93.12366485595703
650;1665761812.7314007;46.975535199999996;7.1803561;53.9640007019043;1665761812.869019;0.04513274505734444;0.8456436395645142;92.8956298828125
651;1665761812.9363594;46.975535099999995;7.180356;53.77800369262695;1665761813.0720236;0.7695429921150208;0.20378826558589935;93.31206512451172
652;1665761813.140346;46.975535;7.180356;53.592002868652344;1665761813.2828403;2.0671417713165283;0.32484307885169983;93.18940734863281
653;1665761813.3540874;46.9755349;7.1803561;53.40500259399414;1665761813.4946344;2.3338794708251953;-1.2590738534927368;93.3074722290039
654;1665761813.562951;46.9755348;7.180356199999999;53.217002868652344;1665761813.6986194;1.8134195804595947;-0.9752078652381897;93.12757873535156
655;1665761813.7669384;46.9755347;7.180356199999999;53.03000259399414;1665761814.015815;0.20632854104042053;-1.461197853088379;92.99076080322266
656;1665761814.0802324;46.9755347;7.180356199999999;52.840003967285156;1665761814.18857;-2.008643865585327;-1.8054462671279907;93.28901672363281
657;1665761814.238345;46.975534599999996;7.180356199999999;52.64600372314453;1665761814.3632734;-3.487699508666992;-1.604257345199585;94.19956970214844
658;1665761814.4169512;46.975534599999996;7.180356199999999;52.45100402832031;1665761814.5389533;-3.2012925148010254;-0.7744009494781494;93.99468231201172
659;1665761814.6023943;46.975534599999996;7.1803563;52.256004333496094;1665761814.7282984;-2.8267219066619873;-0.614996075630188;93.89803314208984
660;1665761814.785879;46.975534599999996;7.1803564;52.06200408935547;1665761814.91276;-1.5607905387878418;-0.7742780447006226;94.19157409667969
661;1665761814.976199;46.9755347;7.180356499999999;51.86900329589844;1665761815.1225998;0.5375699400901794;0.3642411530017853;94.52916717529297
662;1665761815.18116;46.9755347;7.1803567;51.67400360107422;1665761815.319751;1.0766396522521973;0.1532232016324997;94.60906982421875
663;1665761815.387095;46.9755347;7.1803567;51.47700119018555;1665761815.5208101;2.396368980407715;-0.30844295024871826;94.06429290771484
664;1665761815.5813231;46.9755347;7.1803567;51.28300094604492;1665761815.7238152;3.6016767024993896;-0.20866559445858002;93.61260986328125
665;1665761815.793111;46.975534599999996;7.1803566;51.0880012512207;1665761815.9449632;2.9303884506225586;-0.8540570139884949;93.37032318115234
666;1665761816.0058818;46.975534499999995;7.180356499999999;50.89500427246094;1665761816.1327639;2.3011863231658936;-0.8266275525093079;93.69158172607422
667;1665761816.194251;46.9755344;7.1803564;50.70100402832031;1665761816.3357692;0.4458884000778198;-1.4048680067062378;92.93074035644531
668;1665761816.3972585;46.9755343;7.1803563;50.50600051879883;1665761816.5348718;-1.8782143592834473;-1.3198776245117188;92.98291778564453
669;1665761816.6051428;46.9755343;7.180356199999999;50.307003021240234;1665761816.7339764;-2.8574609756469727;-0.9958966970443726;93.09716796875
670;1665761816.8003433;46.9755342;7.180356199999999;50.105003356933594;1665761816.9457676;-3.067126512527466;-1.3074196577072144;93.50692749023438
671;1665761817.0140877;46.9755343;7.180356199999999;49.90400314331055;1665761817.1438963;-2.9462082386016846;-0.8329802751541138;93.71391296386719
672;1665761817.2073357;46.9755343;7.1803563;49.7030029296875;1665761817.3420253;-1.1331831216812134;-0.8462449312210083;94.13941955566406
673;1665761817.404487;46.9755343;7.1803564;49.50600051879883;1665761817.540152;0.5528336763381958;-0.572521448135376;94.36649322509766
674;1665761817.6055446;46.9755344;7.180356499999999;49.30800247192383;1665761817.742183;1.8937923908233643;-0.4173254072666168;93.17790985107422
675;1665761817.8075767;46.9755344;7.180356499999999;49.10700225830078;1665761817.9481218;2.2723021507263184;-0.29712140560150146;92.39299774169922
676;1665761818.0164392;46.9755344;7.1803564;48.90800094604492;1665761818.163816;2.9947760105133057;-0.9133202433586121;92.79698181152344
677;1665761818.2292066;46.9755344;7.1803563;48.711002349853516;1665761818.3638961;2.767988681793213;-0.7191498875617981;92.63994598388672
678;1665761818.4273436;46.9755344;7.180356199999999;48.5160026550293;1665761818.5688553;1.5535567998886108;-0.8738332390785217;92.15560913085938
679;1665761818.63425;46.9755344;7.1803561;48.31800079345703;1665761818.7738156;0.15486519038677216;-0.9925819039344788;92.0312271118164
680;1665761818.8372543;46.9755343;7.180356;48.12000274658203;1665761818.9680417;-1.829053521156311;-0.9786123633384705;92.21925354003906
681;1665761819.0363607;46.9755343;7.1803558999999995;47.91800308227539;1665761819.1729984;-2.20939040184021;-0.9831036329269409;92.26168823242188
682;1665761819.2374158;46.9755343;7.1803558999999995;47.71800231933594;1665761819.3760116;-3.128641128540039;-0.8199699521064758;92.6307373046875
683;1665761819.441399;46.9755343;7.180356;47.51900100708008;1665761819.5721867;-3.2900614738464355;-0.7351832985877991;92.6427001953125
684;1665761819.640502;46.9755343;7.1803561;47.31900405883789;1665761819.7771432;-2.065559148788452;-0.6472304463386536;92.9460220336914
685;1665761819.8425407;46.9755342;7.180356199999999;47.12000274658203;1665761820.010407;0.15022827684879303;-0.6314433813095093;93.74178314208984
686;1665761820.0748239;46.9755342;7.1803563;46.92300033569336;1665761820.2075603;1.258046269416809;-0.7805487513542175;94.3106918334961
687;1665761820.273927;46.9755342;7.1803563;46.72500228881836;1665761820.4993846;2.7941246032714844;-0.4805150330066681;93.3155746459961
688;1665761820.559895;46.9755342;7.1803563;46.52400207519531;1665761820.6984878;2.859537363052368;-0.7835213541984558;92.9197006225586
689;1665761820.7658315;46.9755342;7.180356199999999;46.32400131225586;1665761820.910278;2.975944757461548;-0.9862700700759888;92.76904296875
690;1665761820.9737203;46.9755342;7.180356;46.125003814697266;1665761821.1084063;2.2203307151794434;-0.9081304669380188;92.67802429199219
691;1665761821.1718476;46.9755342;7.1803558;45.928001403808594;1665761821.3075109;0.8507674336433411;-1.1380856037139893;92.13560485839844
692;1665761821.3758318;46.9755342;7.1803555999999995;45.73100280761719;1665761821.5085676;-0.8658908009529114;-1.130744218826294;91.60353088378906
693;1665761821.5749345;46.9755342;7.1803554;45.534000396728516;1665761821.7135284;-3.8532421588897705;-0.9237712025642395;92.56686401367188
694;1665761821.7818496;46.9755342;7.1803552999999996;45.333003997802734;1665761821.9331293;-3.58068585395813;-1.0871195793151855;92.91168975830078
695;1665761821.9916859;46.9755342;7.1803555999999995;45.13100051879883;1665761822.1380863;-3.0015811920166016;-1.0500133037567139;93.14096069335938
696;1665761822.1985989;46.9755342;7.1803558;44.93300247192383;1665761822.3284066;-1.6664886474609375;-0.47196221351623535;93.64144134521484
697;1665761822.3977044;46.9755342;7.1803561;44.737003326416016;1665761822.5382478;0.4446726441383362;-1.093602180480957;93.77940368652344
